4039 64
1821 -9.334513 7.8997507 -5.0852976 -0.7846511 2.621781 -0.33306882 6.876404 2.2208405 0.5034159 -5.573518 -2.09911 -4.799194 10.342236 -2.290495 -6.9236865 -4.581339 -1.9026034 3.247183 2.4665809 2.1686418 -2.684221 7.6260586 -4.0251274 -6.1221466 3.5168939 -5.335187 -6.692483 12.4515915 2.6000664 -3.62645 -6.217706 -4.380824 9.36653 0.13222262 1.0664726 3.4462833 -5.4140496 -2.9399407 -4.582462 0.8643365 2.6017992 -1.8840476 4.005219 6.5432305 -3.3861003 -0.18675277 -10.738729 -5.942558 3.1880662 -3.521126 0.20132543 2.5814264 4.3461175 -3.4995203 -5.9054117 5.477151 1.4390113 4.85702 3.7531009 -2.797447 -0.05210348 -4.2398915 7.1573343 -7.130605
107 -6.963714 1.8833467 4.415076 3.4311202 4.864854 -2.7641377 1.1298996 5.381381 -4.678431 -1.3930798 3.791036 0.91526705 -7.623575 1.7554101 1.7242208 2.4061801 -5.4951677 2.8125865 2.422478 -3.3299415 5.684403 3.051972 -5.4505796 8.972523 -7.7775936 0.3969184 3.780263 -4.451044 -4.3079357 2.3380198 3.414081 10.286176 2.2662663 -5.6657963 -4.776896 -4.2099543 3.8851953 2.4714231 3.1016474 0.6617909 1.7060819 1.4350485 4.1789074 -1.5647986 -0.67285407 0.061179522 2.163128 -3.8046384 -5.4048405 8.901116 -5.6989837 9.825694 0.025583262 -2.296158 5.5148687 0.3902219 -5.368034 2.760475 14.993022 -5.0630484 -4.172628 -3.3663783 7.1680646 5.033088
351 6.443345 -8.067871 -3.9297733 4.5568876 0.67539895 4.7202044 -6.7690973 0.34496063 -6.398506 -3.9116437 -8.473089 -2.978302 2.5245838 7.5309186 -4.500637 -2.2029216 3.1540468 3.8672159 1.2203457 -2.2127185 6.2688303 -7.9752655 -1.1692592 -1.4416581 6.266915 -0.85682476 8.454294 -2.8784206 -6.021638 5.8726087 -1.5526242 -3.211981 -0.66711956 4.0004034 1.3350155 3.880657 2.1979394 -2.2286918 -8.598364 -2.2181687 -1.3752794 -5.3426967 1.0930307 8.1089115 8.624203 -7.834537 2.7343447 -1.1140552 5.889826 -0.026575988 -3.2089262 10.242427 -6.2207723 -2.5386312 -2.3067014 -6.302204 10.23385 0.098100714 -1.9416229 -3.841775 -5.6968236 5.5586348 -6.721142 -1.3558148
0 -1.9375706 -1.6360406 -4.660243 -5.8321867 1.4112815 -1.5813196 8.299175 5.1906395 -3.3741715 -5.953 2.3088324 3.2745447 -3.816691 3.2295089 -8.934073 4.2662725 -4.932009 -8.206385 -3.72655 -3.7910013 2.7425137 -4.407289 -1.9234769 -1.9147499 6.7262483 -7.85549 1.0676603 4.8901954 0.86479914 0.8448993 -4.361935 -7.343656 -1.2623211 -2.3418667 9.850042 -1.8907996 2.826017 -3.1401167 -0.89505154 -3.2131274 0.82476395 -1.9376816 -1.6021112 -14.861145 5.5214915 6.1270213 -1.1118689 -2.141499 -0.18811995 6.0758357 2.8028595 -5.567388 -7.4161525 8.536885 2.76385 -2.3708525 1.4955201 -7.0071015 -1.6523404 2.061176 1.2718172 -0.87966406 4.429152 1.3437245
352 15.447929 -4.835805 -0.107062146 0.3011769 -10.009918 -3.941067 -7.456408 -3.311192 3.3149037 7.7442636 -0.32719904 2.539882 8.795719 -7.887522 -0.910772 2.0017269 4.193986 -6.6276712 1.9291074 -6.261984 0.17197016 -1.4087363 -2.6614478 -4.634645 -5.6292477 2.9410934 -6.5779824 4.191178 3.9125473 -1.1409196 4.208494 -5.4883847 2.5046833 -0.8922382 -6.5563526 -5.273918 -5.3793826 -4.6120496 0.87065595 -2.4720051 -5.1681137 -2.6924198 6.939487 -8.617821 -12.462033 5.6945767 4.1849995 3.8534336 -4.701651 0.17732431 -3.5200088 -5.9306264 2.5765216 2.465763 5.35738 6.5087147 -1.0953474 4.729864 -3.8918004 -0.21012384 -1.7303915 5.7685595 -1.6946188 -1.0669527
1831 0.5229137 7.0566196 -8.937195 -7.0697517 -1.3814006 -1.258276 -3.5803497 8.280464 8.777614 2.972736 4.7996573 -3.2093325 -4.9873233 -4.3286586 6.768227 -4.124133 -4.666527 4.6030498 4.016316 8.728885 -3.60245 -8.480643 4.0387025 -7.5438447 5.688765 2.7377527 -0.15970159 2.5617514 5.3798 2.5066001 -3.4905415 -1.9051766 0.045581285 0.495722 2.4872875 1.82516 5.4772906 -0.46945465 -5.9986362 3.1416996 6.564508 2.345735 3.501499 -3.6688156 -2.7386577 -0.17349108 9.862351 0.36298507 -1.2131033 -2.5610013 -2.107885 1.9257383 -2.9421225 -6.6341434 -0.90476 -4.0276046 2.3020964 -0.67781484 5.1579623 -3.1872246 -1.4934582 -1.1263093 -0.20826349 3.8777065
1827 2.553229 -1.9702207 5.5190673 -0.038676463 -0.04598425 -2.7061367 4.8253756 13.691342 3.2609212 2.4109285 1.1273872 -0.33490825 5.553057 2.7171557 -0.034364488 2.241469 6.0627837 -0.4531815 4.424423 2.8826928 -12.911363 -2.2684925 -3.7001848 3.534389 3.5392535 -3.2392542 3.9836843 -1.003341 -2.8389158 3.0634758 -0.86096025 -3.9108808 3.641536 2.452026 -1.93966 0.82887566 1.2427377 -1.1004434 1.1476189 1.6258205 -4.0517697 -2.0154893 -0.24289283 -2.481609 5.624236 -2.9823382 -1.2780769 -7.1183496 1.1846914 -8.141697 -0.14193359 -4.3497815 3.4778905 -1.1862868 7.2841134 1.5128314 6.433608 0.999658 5.341035 1.9988217 -1.6875441 -2.7802444 2.9730618 3.1476848
348 -1.1400077 5.1108985 -2.2546024 -0.4979288 -3.8748236 -2.1890926 10.679637 3.793965 -3.8947723 0.1612263 2.0453112 1.2358224 -4.348024 3.975722 -5.2833977 -6.8957 2.0778904 6.305353 4.140859 2.874569 -6.502298 4.0653043 1.2840265 10.918009 -3.9275045 -8.065644 2.555778 -0.7136187 -1.4439526 16.5331 -2.7001708 5.6143117 4.5432186 2.2832682 -0.9460695 0.7753282 6.798212 -4.4959426 2.4169269 -4.4423203 0.21389285 0.3972451 -2.7341328 -5.181777 -1.1333468 8.487184 3.5476902 1.8820873 -2.4750087 -0.83517766 -1.2814845 -0.57764643 4.187082 -1.2718211 -4.4917755 -0.58030087 -1.4270327 -4.5593233 -4.205845 1.842643 0.8680766 -0.8461003 -4.2673335 -4.9853473
366 0.31698844 1.970871 -2.6162653 7.4761868 -0.58361936 -7.644687 2.335179 7.4448667 -1.4702017 -0.60379344 12.46038 -0.26400715 -7.3468833 12.612658 -1.9927616 0.97136235 -7.4158688 7.238179 7.271263 -1.3020386 -4.417163 7.8180704 5.814948 9.152834 -3.8096137 -3.6498525 6.8103166 -0.8948743 3.0079572 3.8521793 0.42791334 7.279164 3.3420532 -6.7132154 -6.3125257 -3.9574776 0.32312563 -5.5361986 1.7324661 -5.5036626 -1.0869579 -2.8837504 4.3955064 -2.081291 1.5431867 0.21986544 2.8190424 3.4687753 -2.9139287 -3.8763645 -6.3207774 0.6923921 0.7555681 -3.1900008 0.5320002 0.8390665 -7.261469 2.5231435 -0.87369746 0.520534 3.2219737 2.8241768 6.2507224 3.6097488
349 3.6167285 5.552821 -3.7922108 2.4781473 4.711937 1.82561 4.0606875 8.998006 -0.042111292 -2.6130605 8.859652 5.354832 2.4081857 4.7621365 -1.7527618 -4.0081425 -1.6277279 3.1916444 3.3180254 0.017535456 -1.8828963 1.3762608 -4.872861 6.6361175 -0.20893931 -12.904869 3.9754453 1.6287106 -0.54082644 5.2927585 7.883572 3.6817334 1.3261627 -1.029142 -10.368193 -2.2041163 0.49413094 0.9363579 -1.0780566 -4.8847237 7.030291 6.9799876 -0.39903072 -0.27883372 1.7120895 4.3194494 5.571409 4.369051 1.4987183 -9.240718 0.70808154 4.6539693 4.4970937 1.4433973 -2.958695 -6.260428 -6.541164 -3.9226077 -3.6991994 11.454487 -1.3824333 -1.2284647 -0.6484373 0.7278415
2088 -5.035312 4.495123 2.4592943 -0.31091648 2.9395876 1.5633116 2.9057965 1.9713352 2.7540028 0.13783962 4.3963027 -2.9014258 4.949802 -9.699017 -3.0378788 -0.5864581 -3.1251318 0.23171766 2.4756048 -1.835425 3.5353715 3.4051661 2.166385 -5.2151814 5.220954 -4.4252615 -5.140557 10.490168 2.6559803 1.8818226 -8.028623 2.1582623 5.7246385 -1.4438776 -5.8643627 0.27860218 4.1438794 -4.8034897 -0.6154369 -1.364997 -2.9389572 -4.969935 1.0748439 8.7268305 5.264349 2.0727637 -7.739004 -3.307519 0.7581533 -4.4970856 10.914331 0.37585178 2.1311336 -1.3170221 -5.2616615 1.9475751 -1.1706709 4.8081026 4.209779 -3.6809359 -1.1908919 0.07329784 3.2348797 -4.500339
1843 3.1204913 6.6056414 -6.499288 -8.247292 -2.4369788 1.4758086 1.2540047 0.63459164 9.956488 0.5423137 5.3492417 -1.9145244 6.166571 -3.1981137 1.4112676 -3.5900788 -0.5576767 3.3562386 -1.7970829 4.382908 -2.551861 -5.081416 -0.16795507 -4.9677253 5.572275 -4.93179 -7.276196 -1.5345184 4.638332 2.0049243 -5.465463 4.006939 -3.457418 -2.344438 6.6923842 -0.38240963 4.158582 5.0060196 0.45299956 3.9411085 1.4455827 0.2953015 7.3715487 0.83640754 5.511185 -1.7660975 8.904305 -2.8779566 -2.5908523 -5.467672 -1.5155393 5.033684 4.8674126 -7.7946296 -10.142829 -2.677882 1.6235483 1.9169594 4.067069 -5.873957 5.0255666 -3.3505902 -1.8177705 2.7192063
1973 -2.0540998 4.879975 -8.840763 -6.682754 -4.224368 -0.9733281 -0.59505934 4.98227 9.464077 -2.1913416 0.0793914 2.963239 0.26185998 -2.018086 0.019762667 0.8301106 -2.087097 4.154423 -2.2910972 1.4290662 -4.1769867 -3.2239268 3.1994202 -4.005761 3.9792743 2.8786225 0.96491534 0.7088668 3.970217 -1.241744 -0.9035774 0.11432247 -2.9622772 -1.9374338 -0.9059553 -0.6857937 4.532472 -2.6413887 -1.4608512 4.3542805 -1.1009922 4.2667007 0.91380996 -2.0575368 -1.2493759 1.7045755 6.127669 0.76164126 1.2832878 -1.8379196 -2.1536708 1.7243282 -2.3014946 -4.4369526 -2.5157259 -2.9057715 1.3669922 -0.045007497 4.1712356 0.87764233 -0.016563853 -0.44778922 -2.6172967 1.4504353
56 3.2886627 -2.107087 -1.5838794 -1.7950896 0.2499276 -4.2930174 4.0126457 1.6873515 -3.710341 -2.074494 2.2063215 3.3736043 -4.7657743 -3.211398 -1.7017289 -1.5663782 -2.7548177 -5.870433 -3.023499 -0.68788034 1.01511 -1.5781395 2.2407386 0.87508136 2.7007766 -3.5172656 0.81376046 2.1547756 3.6193016 -2.3095741 0.30254412 -7.8512607 3.8991404 -3.4519305 8.027509 -2.2090628 0.10611125 2.6038914 5.162228 -3.3557742 0.70221096 -0.12453255 4.236058 -3.9061162 5.8728485 -1.3421416 1.2607081 -2.0017517 0.3240539 -0.726502 2.4578335 -3.111524 -1.974212 8.345568 0.8747956 0.05347329 0.9864604 -3.1561 -0.47046518 -1.880365 3.5769932 -2.7863545 -2.409501 -1.1767137
362 1.44746 -0.74219453 -6.227512 3.6430683 -4.4697576 2.2216218 1.790733 6.790692 -1.6685579 -2.311855 5.447942 1.8135893 -6.7053194 2.301758 -4.9561424 -4.6095967 2.0409498 1.5904529 3.9054701 1.6164783 -1.9465007 6.961241 -0.9570798 5.874679 -2.8169405 -3.6077194 2.3527615 -0.5300296 0.14951569 6.529858 1.5454276 3.3968306 4.1655436 2.9356399 -5.7593646 -0.7268395 4.776154 -3.279042 2.3790803 -5.0682583 3.2991216 2.6930046 -4.125338 -1.426841 -3.7399313 2.3059764 3.7200825 2.6138275 -3.8681905 -6.370026 -0.03201994 -1.5554563 -0.39257157 -2.5223308 -4.3552384 -2.0798113 -4.2237706 -4.302316 -2.5917184 -2.383672 -5.4216423 -1.5369631 3.9200516 0.24875493
3946 -2.64482 4.1888533 2.0490966 -1.2495573 -1.1460966 5.295634 3.8781767 0.37517837 3.1860225 -5.7836223 -0.31851014 -2.470298 4.271747 -4.654615 -2.8769155 0.743693 -0.43191838 -0.043163165 0.71985495 0.7246239 2.7452054 0.649832 1.58555 0.25227258 3.3505278 -2.046163 -5.806095 4.7445297 3.3567233 2.5567057 -5.971174 -0.5907287 4.2196364 -1.6873664 -3.7212498 -0.9818955 -0.8928786 -2.9512913 2.945274 0.052601233 -2.525007 -7.83391 -1.6069274 3.9774606 0.9138278 1.0724442 -2.4676068 -2.0845153 3.9975047 -4.173932 3.5447845 -3.3432193 2.3393593 -2.9099095 -2.3947334 -2.985283 -1.9467527 0.8391431 4.4447484 -3.003291 4.1007204 -3.0510938 2.3962781 1.0099808
271 -0.07096573 -0.95411074 -3.1339207 -6.1903358 0.697893 -4.1205745 4.6504483 -0.73348373 -3.4129732 -1.7402315 3.4939656 4.0685 -1.0369198 0.42656246 -1.8086878 -0.018817032 -2.4370298 -6.5459285 -0.17943166 0.6529965 0.51290226 -1.1210737 3.0902255 0.8490836 3.4903202 -1.57931 2.4802692 2.4799376 1.5835063 0.14316359 -2.019402 -5.393708 3.1845808 -2.5545259 4.4513383 -3.666945 2.0809186 2.5713627 2.9544458 0.7615203 1.6802417 3.8028255 2.4324925 -4.7329645 7.1999187 -1.2716317 1.9799445 -0.46431193 -1.3199822 2.2770514 4.888581 -3.4383605 -4.6952696 6.4327197 1.8304942 1.3509065 7.11694 -0.72792363 2.08693 0.46979588 3.6780314 0.3184744 -0.722112 -1.462028
322 -2.402901 2.251313 -3.8036397 -2.7172062 1.1733373 -5.306535 2.8131113 -0.8000054 -4.4755435 -3.508064 -0.15572797 5.9517875 -4.4602118 -1.3728648 -2.03233 2.4438832 0.4208604 -6.459741 -4.7673035 0.10866227 2.0952554 -3.7363586 4.720016 -1.7423451 -1.7355628 -6.64943 -1.7652018 1.4858645 1.6338253 1.0632386 -2.231306 -2.6110585 5.86219 -0.07830435 9.254605 -4.7634892 1.5678798 1.597542 -1.2569878 -4.4694324 0.227428 0.090633474 2.789807 -5.711752 7.0573936 0.10466856 -1.2095897 -1.650047 0.60147077 -3.0263448 -0.24528836 -1.4312655 -6.5371017 7.3500443 4.4623227 2.1320713 2.3792021 -0.5042036 -2.4233525 -2.6136343 6.6251874 -1.8184146 1.9725378 5.7694955
1373 -5.276055 2.36524 4.160537 0.79038525 3.8857381 2.4545875 -3.6203668 3.7229192 -1.2075063 1.063059 -0.78337103 1.6279398 -1.4498105 -1.5459914 1.3818238 -1.8022684 -1.6344371 -0.6296996 -3.8280885 -0.26610002 1.9854357 0.36841404 1.573828 1.2934273 -3.5351653 -0.5915116 4.628591 -2.0144494 -3.1128669 -0.11647496 -0.35453 1.6176057 -0.29244193 0.07068338 0.70996296 4.7203784 -1.4412258 2.3024268 1.0997207 2.188694 0.57555246 1.6545204 -1.2893974 0.49394488 -5.00759 4.040164 2.692832 -0.1351873 -2.8221502 3.5878265 1.2802212 1.6564536 -4.4567018 -0.38844705 -1.5036788 2.5023634 -2.883516 0.92542535 4.1206226 -0.4836195 1.5762044 -0.11476713 -0.39841545 3.6234698
1285 -4.054999 1.0431081 2.2476137 2.389161 6.81546 1.5240602 -2.1854777 3.734554 -1.8627292 -0.77823657 1.2970614 1.2542877 -0.82813823 -1.3465712 0.053243045 -3.8705022 -0.6353444 -0.8004375 -1.1371706 -0.048571978 1.2426466 0.34754732 4.118575 2.620147 -2.4799767 3.0089657 0.8420046 -2.8336413 -1.5298632 -0.10422987 -0.1939372 3.4236531 0.09978902 -0.49765018 1.2683679 3.0696306 0.09467495 2.504237 3.7801063 0.44563583 -0.05656326 3.4422877 0.8457536 -2.0145047 -4.339764 2.4918158 0.6785629 -1.4190533 -3.2342973 2.4506674 0.65838164 2.3981626 -5.5813527 -3.846986 -0.30881047 5.328781 0.50941867 0.9787748 3.004518 1.7986081 0.5758318 -0.8113502 -0.29802552 2.6812673
67 2.4392064 -3.3953831 -1.3794135 -7.102166 1.7354999 -1.6204126 5.0653853 -0.36222512 -0.60598445 1.8488451 1.3259306 6.1384363 -3.4713666 -3.4889698 -0.78319365 -1.3782648 1.4607135 -7.134076 -2.3703055 -1.4532081 1.4996198 -0.113099985 1.7641128 -3.2820117 3.7847962 -5.58429 1.3367857 -0.7404888 -1.8127041 -0.58651906 1.0505667 -3.8867693 2.9834 -3.979305 6.1370373 -4.0043755 3.359406 1.3545591 1.9330244 -2.8591444 3.5550473 -1.7534418 2.3917782 -5.0171685 3.1250641 0.51791745 1.9176058 -0.8417742 2.9013588 0.9103206 0.4786235 -0.50175893 -2.7495952 9.591216 0.52650833 0.98520607 -0.8024199 -0.6725089 -3.0674276 1.4566896 3.09322 -4.1156883 0.13461351 -4.652715
25 -0.87338305 -4.1667814 -3.2358656 -2.366436 1.6995333 -2.930582 0.39017236 2.1661484 0.75300694 -2.69648 4.8309345 6.2726316 -2.3070302 1.2184538 -4.722054 2.4974039 0.078502215 -5.620192 -1.6599009 3.2579663 2.089737 1.1627388 1.4399778 -2.811655 0.5637961 -3.9134707 -3.4617548 3.7995603 -0.52748245 1.7904536 0.9470333 -6.892185 5.0554233 -5.205456 9.426904 -0.49815944 4.240108 -0.66934174 -0.9929848 1.9576157 -0.26914105 1.7462938 2.2235293 -4.720042 11.951021 1.3788829 3.4103203 -2.1864634 -0.28763258 1.7693697 6.142276 -2.0580494 -4.378007 4.188814 2.8376334 1.7745967 0.6612648 -1.9810659 -4.3475256 2.0522306 -1.4628474 -5.086764 2.2972732 3.1596231
3626 -2.7071085 7.8051777 0.6002627 -2.4053931 0.68477976 2.1711833 5.0390115 0.20721285 1.9553704 -3.3972297 0.5350051 -1.2628976 4.737555 -7.1189294 -3.658279 -0.7863324 -2.498229 0.3212439 0.13091208 1.1511275 3.6418872 -1.6347772 -1.0871433 1.7426478 6.1116896 2.1535802 -3.5537832 5.9061046 2.1046312 1.142344 -5.966309 -0.8210943 4.0828543 -0.8351048 -6.163831 -0.5899955 -4.2385063 0.6701433 0.8819746 -1.4583281 -3.3368537 -5.8273854 -0.1007191 3.4879587 1.1488947 -1.8474725 -3.672872 1.0051147 3.3364966 -0.36290643 2.46073 -4.456751 -0.45638233 -5.8982 -3.0072904 -3.7907233 -0.977604 -2.2105477 1.6262916 -3.1116705 3.4645596 -2.3464322 3.7630606 -3.2668045
365 0.9196731 -0.931568 -5.3386607 7.5151424 -2.0081189 1.858057 0.6830506 4.419135 -4.5183744 -3.928818 5.407739 0.97906685 -6.3319583 1.6103088 -3.5105767 -1.5949783 0.070495926 4.33827 3.3569489 4.2581186 -1.5281271 5.3411803 -1.2049301 7.2947083 -6.8995814 -4.690577 0.5164357 0.29069048 -0.3697947 5.076965 0.3048481 5.8875074 2.7992318 -0.31700492 -1.5569423 -2.0803185 4.7099113 -5.149282 -1.116432 -0.9337806 -0.7353112 3.779064 -2.1846347 -2.2904165 -2.4763987 5.759476 1.6783425 2.1929274 -2.2909837 -10.323219 -3.8823738 -0.8568611 -1.8306617 -3.3555987 -1.9153268 2.2756903 -3.0193205 -1.434669 -1.6011083 1.5611563 -1.2481401 0.43878186 2.8931568 0.6071644
1070 -8.815032 1.1636863 1.2251587 1.2952226 3.1429863 1.2133192 1.0902517 0.03932609 -5.2473593 -0.04288396 -0.68349624 2.5213592 -2.1670616 0.17721029 3.284579 -2.4563942 2.5016224 -3.1845827 -4.7591314 -0.5524398 1.4523863 -1.1362193 4.0059023 5.333581 -2.7506566 2.8281138 -0.2596056 1.4523996 -2.5721872 0.4594205 4.2166004 3.1590674 -2.105753 -2.9528737 -0.37644723 3.0668314 -0.74558896 0.27695534 1.4148821 0.67607665 -1.0578406 1.5078555 -0.12094652 0.7879027 -3.7384238 -0.46324906 3.5073206 0.06830608 -2.0274663 1.2900715 0.2635979 5.0881677 -4.5760417 -3.5773208 -0.07831129 0.9021847 -6.14007 -1.4314818 6.2601523 -0.0257138 -0.13628493 0.374647 2.741691 4.4732037
1215 -5.048406 2.5612657 2.9736867 -1.5619737 3.1954145 2.9655824 -1.4576876 1.358111 -2.0940335 -0.3726625 -2.9078193 4.3670535 -2.3499513 -1.0520715 -0.032177504 -4.553466 -2.9345043 -0.9395793 -1.1989315 -0.9972258 1.3958623 1.3596745 3.1327372 2.6303692 -1.9074265 2.348033 0.7519523 -3.2342572 -3.6073885 0.031049797 -0.36762714 3.3939576 0.038936898 -2.6901407 1.5010939 4.7525086 -2.590293 2.8502555 1.7970676 1.8236839 -2.0153317 1.894382 -2.4716544 -1.7803423 -3.1109815 0.44694877 2.0083828 -2.1775076 -3.1244006 3.1787078 2.5105503 1.7560232 -0.74383986 -1.4906917 -3.3622944 3.0957637 -1.3507042 -1.2472125 2.622371 -0.89639086 -0.30369252 0.4122981 -1.5588709 4.507786
3634 -1.887555 4.794512 1.053025 1.2957382 2.052581 4.1727853 8.358701 4.206391 8.20874 -0.51732147 -4.848073 -3.1510825 0.813906 -7.0293326 -4.9044347 0.7470539 -3.2132747 -2.1514983 -0.47231606 5.461196 -1.3376136 0.87599015 -2.77515 -1.240398 -1.2091014 -0.51602465 -5.795592 9.631055 -0.8597011 0.41460824 -6.87195 0.1258847 2.3884737 0.06911477 -0.3530613 0.8539061 -7.989139 1.1075362 2.0482714 -0.8756705 -0.8591664 -7.9892697 1.9704431 6.1332026 1.0612673 -1.499148 0.24601507 -6.5184965 6.0919385 -1.0833837 0.7311067 -5.7861915 0.754665 -2.7586536 -8.13168 0.081552 -3.2564383 3.3589275 -1.8277203 -6.11987 3.4317055 -0.91675025 6.101746 -6.073084
917 -5.274946 0.9108085 3.839548 0.19352882 3.9061365 1.1958975 -2.8216667 4.305105 -1.5548962 -1.6700025 -0.24533935 2.156432 0.16326502 -0.50732094 0.27387607 -2.1794574 -0.34119624 -2.4306471 -1.5742517 -0.7036362 1.0178441 1.1239368 2.641005 2.1808736 -4.104695 1.817482 -2.2743099 -2.936877 -2.5667167 -0.019415343 0.9035623 2.6550012 0.26924106 -2.378667 0.2968878 2.0127432 -1.1442963 3.3334222 2.6433365 1.0143417 1.8207763 1.1624056 -3.721533 2.8589227 -2.277677 3.4152021 1.1026065 -1.0453907 -1.07461 3.998389 0.31202096 2.571193 -4.3064523 0.2671199 -2.0028358 5.3371325 0.17384015 -1.0851393 8.177564 4.8723063 -0.64344686 1.4860121 -3.2346873 2.5654626
350 -0.7596874 0.52565545 0.6671983 5.3766856 -2.2413368 2.0747967 2.9809968 6.967112 1.2666298 -2.205882 1.77388 -0.20392366 -5.6570153 3.5829225 -4.936246 -0.043468513 0.6848947 2.7797968 2.4850974 5.4574995 -4.059814 4.335132 -2.1941993 7.6890907 -2.3244424 -5.889152 7.8543077 -0.9189318 3.9100661 4.395723 3.055473 2.5442147 3.745032 -3.7389982 -7.8520722 1.9550614 2.9734106 -2.727676 -1.2304002 -5.3246694 -2.105631 2.2744853 1.9762871 -4.0018425 -1.9697167 3.9600675 -2.5598583 2.0226307 -0.7346569 -5.5131006 -2.2327933 -5.3710184 1.1521723 5.9823728 0.38561165 3.4710639 -2.8442454 -4.3270993 -3.6386433 0.33893046 -1.8164829 -0.44084382 -0.53227854 -0.29275346
3581 -2.3055198 1.6607019 1.9077026 -3.2654395 1.7981503 4.5951643 5.528817 -0.35839626 2.9382753 -3.7910497 -0.44077474 -3.6267262 5.302776 -7.319626 -1.114427 -0.23303074 -0.6038563 0.27200785 0.6255565 3.449094 4.0184436 1.2471806 -0.7897248 -0.570513 2.6444492 -0.7538658 -3.0004237 3.9069383 2.3038216 0.06537246 -6.1577916 0.20743223 4.6412 2.4681664 -2.0224583 -4.2775383 -1.968633 -1.5998111 3.8736799 -2.270141 -0.5888489 -5.949413 -0.49124625 3.0502515 -0.40194947 1.2046587 -1.4090728 -2.487716 5.8180127 -4.502656 1.661803 -4.113512 0.6988904 -4.497882 -3.7178266 -3.1087801 -1.693858 -1.3968028 2.2389472 -2.3925488 0.8110515 -2.159156 4.5699577 -0.98612154
838 -4.701519 0.97075623 4.3063684 1.0018868 4.7343316 0.76566046 -3.2308705 1.5847785 -3.1308148 0.22884753 -1.3198603 4.3250093 1.8838112 -2.6029572 0.39838237 -2.6981614 -1.5841246 -1.0676525 -2.2470057 -0.96426135 0.36857775 0.34124824 1.1965139 2.1380668 -0.63822883 0.47326127 2.3203557 -4.1875257 -4.730227 0.39127505 0.5034527 2.7168827 0.6108912 -2.3868728 -0.00845166 4.3686075 0.09512359 2.07478 3.0801742 0.6243838 0.031194653 4.1295714 -1.2103606 0.36497208 -2.4775176 1.3399817 0.20622566 -0.41473237 -3.9854577 2.5000415 0.83108616 0.14483418 -1.6897649 0.068546645 -1.1833416 4.9891148 -2.7742941 -0.44399214 4.0648065 0.14603744 0.81008977 1.4299427 -2.715582 3.365217
572 -3.0190475 3.6231797 4.9709764 2.5739343 7.324832 3.2874827 -1.5195603 2.3804517 -4.0035787 2.4378614 4.225402 1.6092263 -3.4919865 5.421789 3.5781522 1.2833756 -2.4831254 -0.7925725 1.0726452 1.0288547 1.5899532 5.2688937 4.9949346 3.2922409 -2.0940673 -0.26392692 4.8966665 -0.4125291 -1.5164292 -3.7238538 2.1179829 7.7036834 -1.4003285 -6.4902086 -1.989976 0.7066606 -3.2777185 -0.8124691 -0.3388635 1.6790694 -1.492776 -0.03515829 -0.5121371 -2.737298 -1.032174 1.2682074 0.16212246 0.036146093 -2.213802 2.2969244 0.5536442 5.3637004 -3.0918186 -0.07227396 -3.5897532 2.773817 -6.6673207 6.6060734 5.5686135 5.8378115 -1.6463556 3.6746526 3.6526372 6.525247
1253 -2.7991781 3.0569987 4.5649567 -0.09021904 5.86917 2.063843 -2.664092 3.08425 0.38158658 1.0208712 -1.296929 0.89064723 -2.2229207 -0.37160847 -0.9121988 -2.5040557 0.65504795 -0.38371512 -0.51339483 -2.9322171 3.688384 0.24472484 3.573896 1.5586125 -2.28833 1.7094064 1.9349201 -1.9256268 -5.364297 0.70533156 -2.7051234 4.154921 -0.021111006 -2.1876087 -1.0128026 2.8439543 -3.840906 1.8029472 0.12107527 1.5305014 -0.6422485 2.651151 -1.400204 0.47986737 -2.9198642 2.2987735 3.1957128 -0.7119481 -4.351021 2.5097482 0.864619 -1.2277604 -1.9335463 0.92872465 -0.9020184 4.959875 -3.1060402 -1.7910626 5.6792607 -1.110337 -0.026044203 -1.6462282 -0.45858583 2.7995381
277 0.690001 -2.748736 -2.3826647 -4.291541 -1.834029 -0.311475 6.9768744 0.3053417 -2.414793 -1.2804624 4.0358205 -2.845074 -1.3455441 0.33962265 -2.008165 2.303262 -1.4453826 -6.354049 -3.3716495 -2.485457 1.7839105 1.4190732 3.7560208 -4.426081 0.3252473 -2.0486574 4.4948225 -2.313602 2.4816418 -1.0882245 -2.0075161 -7.282353 5.2064576 -5.5575557 8.845088 -2.6446977 3.3307366 0.09415643 4.0008945 5.3405085 -2.024435 -0.12247668 6.259891 -5.3394413 4.3432093 4.2072325 -0.086733356 -1.6378534 6.123223 -1.5734602 2.466921 -1.1635444 -3.7584677 5.5204625 1.5665765 -3.1522002 2.3760867 -5.100495 -2.8513186 1.4195117 1.7351887 0.42175213 2.6445732 2.6530862
1858 1.0397886 4.4544315 -8.012738 -5.83766 -0.40448996 -3.219224 -2.206138 2.4560165 7.8232965 0.29550633 3.031293 0.9879095 -2.5200634 -4.382391 0.18560128 -1.6631006 -4.036141 -0.5804138 1.400291 3.8520756 -4.9145217 -5.591634 2.6099153 -5.381279 -0.776594 1.9085985 1.8464047 2.9968042 5.8197165 4.3911276 -1.7073021 2.6866436 -0.8443974 0.67962056 0.11897092 4.2799973 4.2796464 -1.4506854 -3.4291625 4.3538985 0.6095675 5.4729934 0.1101167 -3.3147511 -1.6267009 -3.1754057 5.5953107 -2.1780407 3.2324088 0.69349146 2.33389 2.2447617 2.664223 -4.320667 -0.33775622 -5.0716352 3.4144185 2.0261254 1.1834455 -0.2643006 -0.11424327 0.41518047 0.64708865 7.162462
2130 5.819644 2.4735081 3.6429753 -2.8901243 -4.985784 0.13891327 -3.427767 -3.5472682 1.1593374 2.9886794 2.4920413 3.1698928 -0.21736132 -2.4330347 -0.015473958 1.553191 11.46136 -3.4510715 -1.4259813 -5.177107 -2.310597 -0.23469317 -5.348225 -3.8537252 -0.16213156 4.3860126 -1.513782 7.22401 6.050761 -0.08404663 3.0144296 -3.9644392 -3.122636 -0.32073408 -2.1347406 2.3455184 -4.9036484 0.6053551 4.733881 0.42212486 -2.4350398 -1.5297834 5.5995464 -5.489237 -4.0601745 1.8345867 2.5000606 -0.94180495 -1.475531 -2.0267272 -6.31664 0.84106207 1.2912208 0.9546781 -0.029313264 1.3136821 -2.6787658 4.1078043 -7.485186 1.6606319 -2.6882048 2.3497565 -1.8799336 1.6486124
1490 2.978453 1.3679004 0.5987058 -1.892117 -5.4442544 1.2850156 -4.7187257 -5.256435 -3.8174253 7.618647 1.0496095 2.9116309 1.0422238 -1.1383806 1.4221913 4.6880207 -1.0177416 -0.98070854 0.641651 -0.38889512 -1.7312601 -1.2367941 -4.7060757 -4.2040086 -0.6605274 2.5757606 -6.9274535 -3.401631 4.4808054 0.67724204 3.9634573 -2.3630743 -4.9740324 2.277556 -1.300642 -1.2687874 -2.6225693 -0.9122726 4.121937 -1.1956788 0.27643615 0.097410075 0.6244887 -1.7122984 -5.937233 1.4897182 -1.4052504 -1.2661406 -2.1716068 -1.5033834 5.4212775 -5.7328043 0.39045396 4.1947303 6.282206 -1.2466706 -2.2779403 6.067655 -3.578302 0.13232212 -0.23575217 2.0240242 -2.1487281 -2.5113256
21 -1.8467525 -3.1520636 -0.25143248 -5.1959033 -1.659803 3.1278942 6.228925 -0.25695682 -4.4511228 2.4336765 4.178321 2.7127402 -4.0832806 -1.9538833 -4.995048 -0.60189235 -3.3425214 -6.2853117 0.5867069 2.9460974 -2.737475 0.60311174 -0.14469767 -3.47906 1.9019883 -5.894403 2.0792425 -2.8281817 -0.45885435 -5.627049 -0.46671167 -6.6102643 0.7218597 -2.4016023 5.884361 -2.0090034 4.06629 -0.51585907 0.84008336 -2.1924143 3.003052 -3.5144365 2.1140907 -2.81748 4.487637 1.6463045 0.777431 -3.1813157 1.4641353 2.7133923 1.2925761 -0.123673335 -3.0220127 6.958473 0.052679576 -4.3682213 3.638081 -2.6348603 -3.5450642 -1.3644166 3.667246 -3.2432399 0.91414654 2.8578134
26 -0.022488782 -5.134275 -2.625091 -7.027966 3.743961 0.831266 3.5218997 -0.6347735 -5.9447837 0.19937667 4.4027057 5.4263773 -1.9128162 -0.85839117 -1.8457865 -1.645813 0.1918935 -3.9545994 -2.8266804 2.792451 0.08576046 2.6826997 -1.2231255 -1.1882426 1.2439029 -6.408357 1.3170493 0.42912653 1.4988886 -4.21282 0.2249593 -6.341842 1.9188082 -0.78692085 6.8439474 -1.8942381 -0.2857144 0.6058981 0.15022889 -1.445155 2.2941432 0.54146403 1.2082489 -4.365275 5.2946353 0.7371686 1.9861594 -0.8543448 -0.29464123 1.5479021 1.2529712 0.7568271 -5.398932 5.2669997 1.8388538 -0.4332593 1.441281 -0.49356294 -1.0611438 0.3229576 3.8966482 -1.3477776 1.6535279 -1.5605667
1850 -1.2347025 3.9309237 -7.3796954 -2.434012 -2.9775085 0.31251383 1.2350595 4.3428707 9.977741 2.0041149 1.9388095 1.5442302 1.6393338 -0.15852721 1.1481129 0.3444104 -3.0830812 0.70971924 1.0370566 5.542091 -2.4176693 -5.9583945 4.967523 -3.097748 4.423488 2.0870817 -0.31879 1.1566705 3.0435445 2.1439764 2.8826268 0.4446805 2.4021888 -3.3461444 -0.108642295 2.4632442 3.0298247 -1.1182152 -1.954988 8.25897 -0.8229444 3.1099684 -0.13619974 -3.4321332 1.8339134 -1.0826076 5.4014416 2.2764895 -2.103705 0.6342581 -1.4454529 0.22186561 -2.9227877 -5.536256 -0.7686525 -1.6790662 1.8208622 2.3202899 0.96114016 -2.732429 -0.48029456 -3.6022873 -3.9356754 -0.55289584
1149 -4.7144556 0.6608058 3.6136777 1.7318096 4.805976 2.172178 -1.1657089 2.1981168 -3.2433279 0.69088584 -0.106433995 2.1799533 0.023590231 -2.8579044 2.7873926 -2.1482995 -1.967636 0.29237685 -0.05103959 -1.6626796 -0.08282786 0.88840336 0.9240908 2.663255 -3.12193 2.0133505 2.6494446 -2.9348822 -3.787155 1.9949967 0.23297885 -0.7432101 1.7014732 -1.294566 0.7707601 2.9462812 -3.1347394 2.293929 3.0086107 1.1675947 -1.0994592 4.052511 -3.0749075 -0.119389005 -4.216088 0.7881616 1.4549799 -1.7768091 -3.407091 2.9648018 2.086129 2.2447937 -3.3988686 0.76410055 -0.026495174 5.092196 -3.490165 -1.8144721 1.3925276 -0.06928296 -2.5737386 0.79323393 -2.640664 4.789226
685 -4.3636646 1.2102293 3.1056552 -0.49953678 5.028255 1.4929396 -3.4143848 2.2669644 0.012629747 2.1700368 -1.6524273 2.2806435 -1.4338626 -2.707161 0.5900974 -2.8099604 -1.821303 -0.18273023 -2.8657248 -0.9281812 -0.30543736 -0.024008138 4.685586 1.7785157 -3.0577183 0.62216026 3.915737 -2.7316172 -3.3307776 0.64672947 -1.2942455 2.1548834 0.7653686 -1.3345981 1.2360183 1.455031 -0.96959734 2.8625398 2.0304294 -0.99072814 -0.6727672 1.7383044 -2.4224193 -0.27577347 -4.9688272 1.7248734 1.5030277 -0.60590434 -1.9317743 2.1638563 1.8566039 2.2911594 -2.948457 -0.36507264 0.13676016 3.8635285 -2.0964448 2.95155 5.2660527 0.2177315 2.1284313 0.11654885 -0.462767 2.8133445
122 0.9133864 -3.657808 -2.2003894 -8.3439045 -1.2647666 -4.467789 5.5665483 0.77085286 -2.1578598 2.930738 0.55877155 0.84604645 -4.249661 -3.8937147 -2.3745782 0.6849813 -0.92346525 -4.8369827 0.9441675 -1.3210975 -0.23534529 0.13784929 0.5273506 -2.6231146 -0.12978469 -7.020946 4.118999 -2.1923473 1.2776542 -2.6097798 -1.4239215 -5.056919 3.5617464 1.8002232 5.399818 -2.8013296 0.25355175 -1.2900398 1.46818 -2.4115372 4.056156 -0.6517432 0.5476494 -6.43815 4.6453867 -2.5522678 0.78276443 1.2548504 6.22252 4.53827 4.8979764 -2.6667566 -1.6693224 4.949251 2.0293787 -0.18325709 0.65595317 -2.7484293 -0.52125263 -0.72007954 2.1178524 -8.0351095 -2.6234746 2.8969023
2188 6.3876 -3.3790343 -0.7913127 2.6397536 -2.168709 -1.0761769 -2.7142406 1.0691363 -0.50818455 -0.1275689 -6.3776684 0.74104553 2.3403282 1.1304135 -1.5172917 3.6880271 4.900572 3.647798 1.4082842 6.051563 4.0479336 -4.6015987 -0.5864329 1.6034437 7.308028 1.2052647 1.4851358 1.1087245 -3.2585564 0.16908394 1.684378 5.867197 1.2948565 3.2950628 0.118668325 -1.0853066 0.84160554 -0.054634504 -1.7561401 2.4338267 3.6944077 -2.2649865 -0.43143868 3.1634233 2.4572966 -1.1589732 -0.64228404 1.412139 0.92507863 1.8088827 0.23388015 5.837009 0.91371053 3.4536405 -3.7288911 2.7137916 6.6761074 -1.4885914 -3.4734387 -0.68931776 -1.2341523 -1.2287148 0.88060725 4.158018
119 -1.2785896 -3.486106 -0.6336273 -3.631294 2.7139485 -4.081777 5.0312595 -1.5247846 -5.859314 -1.9537023 0.22250798 4.628927 -2.5137346 0.79524326 -7.167374 2.6892762 -3.0933356 -7.434402 -3.8351204 -1.8208793 5.111353 2.9556777 4.956403 -1.7413504 -4.029576 -3.4332676 4.9683557 6.7796116 0.57261056 -1.4618704 -1.8471147 -3.301429 3.450432 2.618273 0.9791672 -0.94821835 2.7968433 0.12262891 1.7367352 -0.18151999 -0.91596305 2.8482535 -1.1319414 -2.730267 6.283153 2.8399863 0.2343353 -4.644669 -0.9144863 5.037393 1.3898168 -0.78974676 -3.026503 8.97277 1.3219985 -5.2038884 2.049518 -4.1868777 -3.5913925 -1.7911043 1.1214645 -0.13965948 3.0454652 -4.7163363
252 1.0547289 -4.206536 -3.246797 -3.6461914 4.135343 -2.9274175 1.15286 -0.28253344 -3.7076418 -0.371943 2.683945 0.9024137 -1.188675 0.33087602 -1.2189946 -2.9710972 -4.464515 -6.8730097 -3.2820375 -1.248497 4.75886 0.44768804 0.23189269 -1.1870922 0.3183762 -6.5125995 0.60608625 1.2203833 4.1611543 -0.25637463 1.6410177 -7.0001035 2.77125 -2.0208344 4.418378 -2.766356 1.5883286 0.4235185 0.07942438 -0.23992051 3.7391722 4.0093446 6.3297486 -3.2661116 2.425971 0.60190815 -0.67912835 -0.77154833 3.3440351 2.937441 2.6755683 -1.1934327 -5.002527 8.428935 -0.05060827 0.4933048 0.73206764 -1.9478414 0.89903754 1.8722765 5.6509185 -2.1195958 0.5047265 0.17586146
2806 5.6115446 -2.6352386 -1.1548203 7.254477 0.8183626 2.1747694 -3.573474 -0.3685117 -4.204162 0.31904197 -3.2622793 -6.5795264 5.0044665 0.6053219 -2.2593508 0.9325052 4.321081 0.41389617 0.015099782 1.9835442 4.841662 -2.7415888 -0.96825826 2.9595873 6.614913 3.0216787 -0.19242698 -0.5668737 -2.743517 -0.9629782 1.4195867 1.7620692 -0.75646216 2.487274 3.9891045 -2.0998323 -3.1271496 -1.7091166 -2.2974691 -0.33237457 3.2685544 -0.89041334 -2.0745168 -0.37685114 4.28503 0.4664905 -2.0117152 0.9846367 4.2780666 -0.15376928 -0.12582058 7.644155 0.29518622 0.8958204 -0.56424654 -0.47584966 4.195211 -3.1422234 -3.0119505 4.280429 -3.450446 0.048299544 3.767913 0.7337634
2832 1.366387 -3.2718358 -1.6574818 -0.6358946 -6.1622343 -1.5881034 -6.0234904 1.2977605 -1.1521083 -2.2324567 -4.6951976 -0.28471842 1.2166061 1.5110656 2.292683 1.9264227 2.8076706 2.7310307 -1.5437077 4.906536 4.0925784 -3.402806 -1.8325424 0.37918872 5.840984 0.6694433 1.5671456 -0.3955255 -2.097269 2.8746097 0.46751323 2.1876276 -2.0745494 6.9100323 0.908719 -0.1513122 -0.55682814 -0.14581797 1.3881925 2.6133552 2.7509289 -3.8132925 -2.0195477 1.1577169 1.6453068 -0.7590836 -1.367435 -1.2372253 2.5007632 -0.96274406 -0.60669243 7.4857225 0.7558165 1.56677 -2.403764 -1.4723368 7.6248283 -3.2331946 -1.9638116 1.9075857 -3.3531902 0.707468 4.054006 -1.7993302
403 -4.8832154 -0.9836311 -0.12068244 1.3863156 -0.07173927 -4.8256555 4.6051903 -1.7720248 -2.3680475 1.7575113 7.740215 1.217498 -4.0910654 9.163131 5.101658 0.65100044 -5.1467175 -5.0995693 -0.24474102 -0.99729526 2.8823984 0.85269433 -1.3703932 7.139807 3.3628905 4.329663 2.9417398 0.14034371 4.280275 1.3137088 0.8726632 1.9980751 -0.60089993 2.3435962 -2.838232 -8.978856 4.377223 -1.8052466 -4.63106 -4.5023537 -1.5281696 -2.7513354 3.815318 4.8032813 -2.700675 -1.986724 4.0753713 0.73476374 -1.8236378 8.74592 -3.629079 4.6181493 6.497785 -2.9037178 2.4933121 -1.4583983 -6.56946 0.024861947 6.0526385 -0.5156083 -3.411393 -3.3070238 8.924673 2.4834907
304 3.6865652 -2.2537985 -0.41571733 -4.2669473 2.7388127 -0.3556585 1.2215122 -2.0690362 -1.5191727 -0.814638 3.1300738 0.9427992 -1.4724842 -1.2817038 -4.2668386 -1.1733985 -0.008440321 -5.5768743 -3.5147798 -2.5751088 -1.1193941 2.611851 3.1230989 -5.252189 1.5643169 -7.474406 -0.7767019 2.8153048 -0.4016007 0.71346116 -0.15217827 -2.741438 0.9658817 -4.9698014 5.829968 -5.2298794 6.022075 1.7388152 3.7312286 -3.0162444 2.9994543 -0.250645 1.4331619 -4.0662146 3.55019 -1.3426528 0.7066865 0.35861784 -1.3961513 0.6119196 1.878721 -2.0378537 -3.5610023 8.264005 3.7908964 -1.5879923 6.819007 -2.963531 -0.24360399 -0.089772046 -0.31759703 -2.1340966 4.046717 0.13984926
2315 6.184991 -3.841006 0.22440228 1.6498815 -2.4583144 2.8978336 -4.187859 1.7547228 -0.40721133 -3.6441145 -3.7484455 -2.0278597 1.3506671 2.5382342 2.5287442 3.0139456 2.3166237 0.9071177 -1.1573273 4.7182784 2.6673186 -3.3125522 -3.2638688 2.0202312 6.4103656 0.496696 0.8297514 -0.77771306 -0.14927962 -0.8345463 0.29860076 2.1317322 1.0330778 3.6674817 1.9130926 1.8583702 -0.5295774 -2.4955738 -0.09332268 1.8052773 6.2685723 -2.6377444 -0.44933528 2.663565 2.6945288 -1.4235821 -1.478988 1.6806881 2.1709163 -1.5541403 -0.5312782 6.921851 -1.1806298 2.6476471 -2.4409256 1.3853787 3.7899947 -3.3422337 -2.4349065 2.1808252 -2.4609628 0.86279714 3.2582812 3.114708
2154 1.7238528 -1.0902973 0.28266162 -4.608668 -2.5851245 -1.8975726 -4.4243097 -5.981137 -3.0209079 4.7670946 0.8440251 0.28573564 1.8411275 1.8792505 1.1868147 3.9064057 2.7214105 -0.5584051 2.3921394 0.40430564 -1.3419486 1.8010774 -0.70764977 -6.814393 0.4987394 3.606923 -5.568211 -3.327759 4.082351 -1.4555489 3.2158113 -3.8495975 -4.61506 4.837766 -4.815593 -0.6967595 -3.6711981 -1.4645659 5.876621 -2.9525473 -2.9052818 1.5127703 4.4996443 -1.4039503 -5.730299 2.395894 0.6794303 -1.9371209 -1.0759916 -1.4582407 3.9096615 -5.839267 2.3367577 2.4515862 4.2684393 -1.2886873 -2.184972 2.9325285 -4.0158105 2.615683 -1.5987024 0.82409745 -3.227354 -2.3303442
2508 4.8387356 -6.087713 -2.6113143 1.8144398 3.163952 4.560732 -5.701915 -0.63383144 -2.490649 -1.3510301 -6.1971583 -4.621684 -2.398913 -1.0994697 -2.7845795 1.395407 1.0509975 3.0838468 4.7683887 6.044939 0.21772873 -4.222678 1.8857427 0.9972796 4.492643 2.4631047 -2.282887 1.4309428 -4.731302 4.604712 0.8751807 -3.0324824 -2.2979484 4.0934153 -2.2385852 -1.9123409 0.049289387 -1.5335892 -0.40542194 -2.917461 -0.4622756 -1.4218256 -4.666906 0.79467803 5.0991 -0.6912222 0.5859418 -4.584936 -1.7741575 3.0571153 -0.45194733 11.319517 2.2489352 3.4294825 -4.269297 -1.5933716 4.372173 -1.9050764 -1.609106 -1.2027868 -1.0327525 2.8384693 -0.22672608 -1.5516157
1312 -4.051718 0.17361856 2.1654994 1.4529899 4.3958235 2.7488914 -0.97440916 2.9763494 -1.4374155 1.6198381 -0.40020198 2.1603448 -1.964289 -2.9973764 1.4274576 -3.472096 -1.268116 -2.194996 -1.8183804 0.7716334 1.4744968 0.8090429 3.6134496 -1.7223543 -1.1819314 0.92136526 2.267032 -3.9130623 -3.179887 -1.1308416 -1.3208889 2.5969605 0.26903874 -3.528703 0.18290572 3.7474976 0.15708703 3.2577744 3.204787 1.5936522 -2.6675296 2.6884298 -3.3912609 -0.8036738 -4.296611 3.6068313 2.8157272 -2.5801752 -2.2757926 5.8338733 0.54238796 2.6374226 -0.63866854 -4.0160427 -2.6628377 3.374734 0.33421686 -1.9386182 1.0193312 -0.044725724 -3.1060698 -1.8492576 0.795862 0.3568708
1268 -2.1410015 3.7830682 4.340032 3.3079138 -0.74197674 -6.160242 4.2815733 -2.024471 -2.576875 1.5679221 -0.6399795 0.3394667 -2.002872 7.33616 5.704577 3.2634006 -1.2772286 -2.538374 -0.7749657 -2.4835632 -2.341067 2.802458 -0.942412 2.9042585 -0.009596183 4.63475 1.7979167 2.4871 -1.2895378 1.7596022 2.295389 2.542007 0.6726425 -1.9797224 -2.7985733 -5.338214 7.28177 0.78832465 -5.22236 -8.064926 -1.6636578 -0.8613571 2.473321 2.6285152 0.26587382 0.838798 8.973083 0.2189527 -5.3895597 5.1095657 -4.0638695 3.5269105 3.4080074 -1.446693 -0.35034844 -2.5594509 -2.0167463 3.0134122 7.0237327 -1.4636606 0.6430488 -2.5432713 11.305951 1.7085011
2055 2.0554528 2.1784232 1.1841874 -2.0469575 0.24371685 2.196933 5.6356664 -0.6822267 5.3320384 -9.096608 -1.3098159 -5.968041 1.8237056 -6.5747166 -3.8361697 2.313607 4.555048 2.9287438 2.7197597 -2.8751738 3.1837616 -0.08218691 -0.95954156 -1.246938 3.7354014 -0.7550153 -4.5016007 5.0903234 1.3762239 -2.7662368 -6.6908016 -2.7946787 4.4667015 -4.4569464 -3.8086195 0.6584416 -1.8729515 -1.530624 0.7906552 1.331162 0.008952826 0.4085141 -0.7223192 4.9183874 -2.2589078 -0.63114625 -3.5096018 -2.2948432 3.7584903 -5.51827 2.0932903 -3.2207003 -1.2660464 -1.6189445 -2.1599996 -0.30356857 0.38046083 1.1901124 4.7059236 -2.8889098 2.6084502 2.1769738 3.6547744 1.9216046
239 3.2913606 -4.5955415 -3.8401873 -6.312194 1.5802906 -2.581396 2.8689933 0.7609059 -0.25044143 -0.17036928 1.8798218 -0.43056762 -4.6818576 -0.23891373 0.23642175 -2.9676185 -0.832377 -6.20616 -5.633162 1.4411423 -1.6275389 -1.0063454 -0.09484366 2.2426999 1.8792359 -4.8745427 2.6661298 2.0173817 2.004594 -5.7000275 -3.2337546 -5.283243 4.4286146 0.969152 7.68785 -1.2130446 -0.07974426 2.584675 4.4295483 -3.865493 -0.64383936 1.3024817 2.0420542 -4.4438806 6.9036274 1.6896465 -0.1031004 -1.0775552 -3.3120003 2.5761993 0.110942535 -2.157764 -0.7984421 5.3756943 -0.48238334 -1.0269668 -0.9574108 -2.1546094 0.407334 1.4932092 1.6551292 -2.7744546 1.7138364 0.087191716
1864 -0.72032905 4.1031466 -6.1407924 -3.7229724 -4.3348346 -1.2265983 0.5108844 4.5735974 5.9531703 0.6648777 3.183822 2.2069902 3.2332387 -3.1402748 4.6018376 1.5555202 -0.86158675 2.0923383 1.7550544 6.6496234 -4.9855723 -3.616588 2.677128 -6.8706994 1.0679713 4.7684717 -0.14439645 1.5116351 1.8574605 1.5942693 -0.3749987 1.3898206 -2.395246 -0.6377884 -1.6616151 1.162208 1.811398 -0.61358213 -1.3435066 4.712171 -0.9782331 4.9083457 -0.6647153 -2.210829 3.2720947 -2.1781754 3.520034 -2.2637563 -2.013762 -0.9940065 -1.6174252 -1.3913721 -1.8281214 -3.886999 -3.1337688 -4.00735 0.22721826 -2.9858613 1.9878991 -2.72147 -0.25903875 0.52077204 -1.6485335 4.52967
200 2.6272016 0.4501635 -1.6245232 -6.7110386 3.1507328 -4.285688 5.145693 2.1209278 -3.2846906 -1.796659 1.2419431 3.9173725 -2.3846982 0.7264629 -4.727836 -1.0269953 -0.021172332 -8.323077 -5.4491653 3.273115 -1.2564967 1.2548367 1.2910807 -4.1923995 2.2316084 -1.353931 0.7242097 -0.6867725 -0.9028152 -2.6123939 1.3432525 -3.2761211 0.45255065 -1.3021725 4.0389996 -4.9664354 2.1039286 2.7272758 0.1333349 0.5878628 1.6565729 -0.5008268 2.342028 -3.179154 6.7004156 -0.93674713 1.414326 0.4026446 -0.1939956 0.9647149 0.51669383 -1.537283 -3.1795943 6.9947467 -0.70449823 -1.8178896 -0.8270295 -2.1007395 -0.9129285 2.8928742 4.2653375 -3.2188172 -1.084459 -1.7760702
1573 -0.13513939 6.7478814 -4.1614814 1.947296 -5.4725256 -2.4274244 4.809238 3.7107582 -2.429018 3.05086 1.2616985 -1.2939358 -0.55587715 2.8274086 -2.598708 -3.9350197 -0.4446819 3.0103827 2.836733 2.0996575 -0.46351883 4.590691 2.0153248 6.4372334 -2.2147324 -7.896043 3.8587482 -2.5173125 -0.2935807 5.0877676 3.8099601 3.800896 3.4012458 -0.38176388 -6.0373044 1.3914458 3.7728784 -1.3477103 -0.38159102 -5.691779 0.7019254 2.3421392 -2.9398658 -1.7693082 1.2735789 6.1726646 4.3909683 0.3535164 3.5851228 -3.2132921 -0.054022487 -3.4041867 -1.7071432 -1.9640352 -2.0493283 2.319167 -2.1764495 -1.6785705 -4.1268306 -0.50130177 1.9552634 0.59938604 -1.4501197 3.309068
2622 3.1400943 -2.86647 1.6692458 3.1510472 -3.9091134 1.3893834 -2.706128 0.3978511 0.08129571 -3.6295817 -6.6428933 -3.2231212 0.49557632 0.53174794 -0.8359102 0.9166383 4.417001 -0.6611543 1.038901 5.047989 2.974918 -4.0439105 1.8323956 1.4121805 5.214695 -0.28126976 -2.3409224 -2.7814837 0.5138911 1.2416362 1.6874353 4.387719 0.530208 2.9695086 3.0149913 -3.0306296 -0.08130794 -1.1575816 -1.4453044 -0.48420182 2.3946009 -1.5443091 -2.5971665 0.38498527 4.240065 1.0130618 -1.4569571 -1.2022151 2.712416 1.8413178 1.8606154 7.3493733 0.2575257 2.497119 -3.9037428 -1.9952735 6.3087997 -0.07745171 -4.3543916 -1.171847 -4.366669 0.6233881 1.5537714 1.272848
1098 -4.2769685 -0.20646752 4.570034 1.6624084 6.474741 1.8769956 -2.696442 3.1543822 -0.8643322 -0.10350118 -0.5048714 2.510581 -1.8527488 -0.5218976 2.628516 -3.1971278 -1.6837786 -1.4838725 -2.1738708 0.8000011 2.2482677 1.7635897 3.4535146 1.707927 -1.9448868 1.4787487 1.6616367 -2.4274898 -1.215613 -1.1380818 1.3668256 -1.0144651 1.404228 -2.625523 0.27105013 3.3684356 -0.4178868 2.4792075 3.7318277 -0.61913025 1.5426203 0.990702 -0.9777674 2.2683976 -4.51311 2.1719637 2.8359573 -2.5064073 -0.97518295 1.1146915 2.7332306 2.1503174 -2.654231 -0.31227148 -0.07698291 1.5642146 -1.09536 -1.8870035 2.6226342 0.18976426 0.046701293 1.35299 -0.15425277 2.741662
1199 -6.179841 1.0315537 4.326201 -0.53655285 6.2435417 1.4976412 -3.5525966 1.8556936 -1.6512314 -0.5380937 -1.6941789 2.2627418 -1.195505 -2.3676746 1.2527093 -1.9916974 0.6201593 -1.8534337 -2.221411 0.58641887 1.0499465 1.7021505 5.3960733 1.1784621 -2.0972917 0.79348165 2.9418702 -2.2389033 -1.2767473 0.39999047 -0.4361351 0.92174715 -0.7381509 -0.5125189 0.14607723 1.7811786 -1.7330997 3.981243 1.761658 1.8044934 -0.48762676 0.06123184 -2.6964076 0.20136392 -3.7391834 2.3145556 0.16204715 -1.4170245 -1.8455908 2.1377752 -1.8616586 1.0552614 -2.2734978 -0.80877733 -0.17691104 1.4894485 -2.3708932 -1.5085138 2.6588306 -0.016399225 0.13896728 0.17359221 -0.5368518 3.5994773
612 -6.0795302 0.86094034 2.1924732 0.35497156 6.111129 0.8978806 -2.8296938 3.183792 -3.1618772 -1.2208012 -0.87466335 0.6803824 0.50025237 -2.1224575 3.1798127 -1.890094 0.58456343 -0.50387985 -0.04607562 0.9549264 2.5205097 0.21080916 2.613865 0.8585095 -1.7192898 3.2570388 -0.5737912 -2.8705955 -0.8760465 -2.323866 0.40888947 3.3281515 1.0516192 -0.46660158 0.056570347 3.0390184 -0.57071066 1.3946964 3.2090147 -0.49638844 -0.13980132 1.7634531 -4.2467756 -0.6561639 -4.8629875 0.69500864 2.1503015 -0.9010864 -1.4808575 2.95725 1.9891272 0.86853933 -3.291225 -0.3057556 2.479193 3.205873 0.66868854 -0.99582124 2.4752798 0.80443084 -0.8171357 -1.3896146 -1.1590861 5.1029196
368 1.6402845 -0.5915764 -0.9146769 2.6128805 -0.8274703 0.0007371576 -0.12057365 6.1138244 -2.200679 1.4954574 4.9098783 -0.062470634 -3.324269 5.504324 -5.464481 -0.42434785 -1.7622277 5.203509 4.5553136 3.8835285 -0.0735008 1.1772414 1.7151619 5.130702 -6.243692 -3.866493 2.4863772 0.8912343 1.218209 5.4921627 -0.1817375 5.252123 4.942606 -5.36495 -8.072436 -1.7830378 2.8689933 -1.558768 -0.18695952 -3.5764177 3.659416 2.3056173 2.9087267 -3.815697 -2.413838 3.0559537 -2.03696 0.27393928 -1.0997199 -5.607184 -4.3580885 -4.322686 -3.889365 -3.0923827 -1.2906774 0.70271087 -0.4251172 -0.16742533 -1.4633299 3.3047345 -0.9179326 -0.5962341 0.13928732 -1.2915027
2902 4.910137 -3.5649462 -2.2760692 0.30638582 -1.729134 -0.21393941 -3.4190936 0.17754473 -2.0894766 2.692131 -2.4542027 -8.036282 2.9399621 0.19445103 0.13253304 4.3171754 2.5210807 5.95978 -1.2306486 6.1994123 1.2838217 -3.8129318 -0.53274137 -1.5299333 5.5332026 -0.461661 1.3717091 -4.0805817 -1.0207176 -0.94444245 0.73007303 1.7573364 2.6226194 2.206676 2.4740481 0.47656536 -1.2035578 -1.4822987 0.020982092 3.6835175 3.5713904 1.5365188 -1.2735851 2.2602136 5.874377 0.5078181 0.90069634 -1.8627374 4.8512096 1.1379155 0.6900623 6.0997863 -1.6597711 3.0409436 -1.8380924 -2.2726243 4.9495544 0.3824268 -3.5521457 0.6801073 -2.7412684 3.0713298 3.4430277 -1.2851897
4031 4.3613067 -1.3559953 6.3691125 -1.9992844 -2.3420777 0.74095464 3.3735604 4.202282 1.3062112 3.8413053 2.5481477 2.3927202 2.8469348 2.5598962 -0.26399934 0.9037977 1.838418 0.31307337 2.2570577 2.3115323 -6.1390386 -3.4027019 -3.2209663 0.11328165 0.0696814 -1.7070962 1.9344444 -1.4720773 -3.4651787 0.27703878 -2.435539 -1.628769 2.0396957 -2.0933497 1.3113799 -0.96287364 0.33070952 -0.18645681 -0.20616218 3.2424722 -3.499967 -2.7746582 -1.5571818 0.0792595 2.3667638 -3.2533262 -2.2086813 -5.2995305 0.010437107 -3.0700512 1.6664901 -1.9775258 3.417067 0.30567154 2.0253415 2.7401607 4.0418305 2.9892952 0.7808975 2.253032 1.6764361 -1.0187063 1.36079 1.4609926
2059 -0.44674522 6.0271926 2.727485 0.7705722 -5.6676 3.3509636 4.5211287 -3.9235702 1.6515698 -2.9885023 -2.6058927 -2.0076215 6.3088107 -4.8090158 -1.8572383 2.046251 -0.2988333 0.48282173 1.8652569 -1.2245318 0.4319345 3.2570968 0.68683934 0.5252553 2.6756132 -4.503925 -1.6643254 4.316727 2.6944406 -0.49772796 -6.002635 -2.4475482 3.4655747 0.8020231 -1.762848 2.5046566 1.9266083 -0.1584818 4.107135 1.2654996 -1.1405288 -2.3346152 3.0588837 4.6095724 -0.7063918 0.6493991 -4.57532 0.49250937 3.8524718 -3.6176558 6.624964 1.0126882 -0.7628517 -3.6817229 -4.7474866 -2.797425 -1.9805003 1.3318539 5.5113444 -3.3847878 0.5303036 0.60806954 3.015925 0.98949265
9 1.6571383 -1.2375824 -4.4899826 -3.282784 2.0673575 -0.59194416 3.637412 0.40432772 0.49036896 -1.2159437 1.1494503 5.081308 1.0681916 -0.38509986 -3.1022902 0.16014731 -0.16052157 -5.309303 -1.8154348 2.8221934 -1.778718 3.599633 2.6830149 0.5958983 -0.115052484 -4.0451455 1.0324185 3.7259307 0.64109594 -6.490868 1.2779253 -5.281682 0.090751685 -1.878152 8.46802 -2.336424 2.6921027 2.6688573 2.981371 -0.17021829 1.7159618 2.5964315 2.9466372 -7.9579167 8.414093 -2.366313 1.9780045 -1.8796213 0.74965286 2.1684427 0.8833847 -1.0348873 -5.5706773 4.8229394 1.7214037 1.4413185 2.538056 0.71409863 -0.45176312 2.0055141 1.9593551 0.021853423 -0.5631111 -0.9608786
2933 3.990394 -3.5986156 -0.8151542 2.6616528 -3.7042103 -0.64173603 -3.882147 -1.7289715 0.4029681 -3.8852844 -4.3637586 -2.3632672 1.5893152 0.90947825 -0.11431922 2.015638 3.334643 -0.2455552 1.8604198 4.788108 3.9266765 -2.466527 -1.0420765 2.984226 5.6050353 -0.91664547 2.0146856 -1.9314888 -2.201888 -2.0667517 1.640911 1.0506356 1.1466143 2.6092503 1.524908 -0.41344714 -0.8773905 -1.9921541 -0.48973686 1.3496647 3.1801856 -2.9068706 0.19894195 2.818007 0.9896085 -2.1838863 -2.2027445 -0.2594412 2.986413 -0.31162938 1.6663768 6.2691307 0.19425371 4.103635 -2.7590506 0.4726785 6.8141737 -2.8819888 -3.7668984 0.22175616 -3.6549742 0.34946525 2.4840887 2.9211175
2427 5.4353423 0.66022617 2.98271 5.930056 -3.8847861 0.5899058 -5.1499314 -1.8661038 -4.037266 -4.8767233 -3.5362365 -1.4320815 4.3274326 2.8723447 3.2972891 0.5502074 2.147812 2.0732937 2.3373916 -0.8668643 2.2495558 -2.1237206 1.9968249 2.3590097 4.3908806 -1.52253 1.0643835 -1.6670697 -2.3320432 0.84105545 0.018557353 2.6063302 -1.2657976 3.206321 4.3074555 0.54211825 -3.5278583 -0.59821844 -1.6236583 1.3631934 -1.54394 -0.46159738 -0.13138662 1.0032965 5.7660527 -2.4206488 -1.5666801 2.3078926 3.7765906 6.6881914 -0.87780005 8.785786 -6.137699 2.5646498 -7.1764274 -3.690692 3.5588286 1.6966969 -5.598351 1.4535462 -0.30372262 0.90827006 -0.04897404 -0.2715196
378 -3.8384373 1.7593746 -1.7023679 6.6080127 0.7998802 1.3591814 1.0157329 4.2617517 -1.6858994 2.351278 12.833557 -2.5030222 -6.297081 6.5685754 -3.2068734 4.529902 -2.4641557 2.5218065 8.916057 1.6686902 -6.411469 3.0663624 6.1940417 3.3206913 -2.2706072 -8.786719 2.1178832 0.76020294 -5.587804 1.6180701 4.6516867 8.455091 0.13536872 -7.5842695 -8.967849 -1.9296454 1.3285722 -1.3422412 -2.5255828 -2.747371 -1.2516212 2.3883097 1.082278 -5.5339727 0.086472765 -1.9163086 0.95743495 0.96414435 -3.0573652 2.600073 -3.9670534 -0.2571669 2.1603768 -3.9095802 0.11081849 -2.6999035 -4.3965096 4.570918 -0.6018805 0.27394035 -4.664338 3.9763567 7.296787 1.2404796
315 2.5222833 1.2658731 -1.5143143 -0.7105039 -0.905604 0.21758737 1.809229 1.3149055 -0.26254997 -1.5662811 5.503943 5.6901517 -5.3695116 -1.2269523 -1.886497 1.2469649 -0.096859366 -6.282835 -1.7747074 -3.0006669 1.1236752 0.1505114 3.1011155 -7.9379497 -1.4816055 -4.874808 -1.5500442 -0.23461407 1.383986 0.044981368 1.1704773 -2.7168462 3.2221029 3.4612296 6.2820005 -0.9930092 -0.07154176 1.9449786 1.1909992 -2.7372687 -0.86745405 -1.9070137 -2.7195482 -4.9323444 8.50465 1.9897976 4.8156 -5.5392194 2.691336 -0.3164174 2.5528772 -4.329336 -5.277877 9.878475 -0.28202465 0.5268367 2.6570613 -0.77241564 1.7961365 -0.88798976 3.8553019 -1.0576723 3.040964 -1.3923265
2053 -0.37679476 4.136699 3.2196903 -3.6312099 -1.6901765 4.7271843 4.804962 -0.6722502 2.3307526 -4.866287 0.24540249 -0.9336103 1.9155025 -4.967685 -4.5808015 1.4536957 -1.5429357 -1.7524832 2.9183211 -1.0164161 3.456628 -0.18475235 -0.3386775 -4.1943426 0.47171608 -2.7313638 -7.5145426 1.3123875 2.2346542 -0.3943855 -4.4163456 -2.3512075 2.7942712 -3.4308882 -2.108236 -1.5774598 -1.4319973 -0.2943389 0.22187215 -0.3684721 -1.628492 -4.0041485 -0.21316308 7.029387 -2.5000226 3.0654137 -4.4684653 -0.9878186 2.9539435 -5.1223893 0.75223917 1.5924929 1.532409 -3.4818642 -4.368235 -4.828075 -2.0810194 -1.4586269 2.43499 -3.9761531 2.4288266 -2.0120919 1.161904 -0.9988905
1663 -0.34504312 -0.6758092 -3.3182266 4.975874 -2.8635414 -6.5720034 0.3073255 3.8856695 -3.3764133 1.51799 3.1699061 -0.21725257 -3.120415 -0.04267564 -3.458784 -3.415863 1.3663812 1.9871761 6.205349 1.1887878 -3.1456897 2.9560375 -0.19322014 5.03321 -2.6171558 -6.1422434 4.7199936 -0.7187198 1.5065731 6.1888323 0.95445997 4.6832623 3.7612977 -0.14571752 -2.315667 0.4040721 2.3670974 0.56558186 -0.08321422 -3.1426797 5.625879 0.7578945 0.94221157 -0.75992125 -0.419119 2.7355216 -0.37647066 3.7463608 0.4031521 -4.9662466 3.6260884 -3.9085026 1.1031315 0.5529271 -3.8517842 -1.6709046 -1.4462345 -2.4273329 -1.8016539 0.39007464 -1.0109426 0.33284587 -0.32802472 0.9793912
2403 2.835579 -3.3518171 -1.6015584 3.4326649 0.7283653 1.7534516 1.0520203 -2.8108974 -1.9520916 -3.469479 1.777852 -0.2783787 -1.1851021 1.8230007 -1.7179667 -4.110106 2.3047118 -0.45068565 2.4863625 -4.497885 0.771391 0.25237316 -2.187975 -1.5481943 0.45347923 -1.8421026 3.90503 -2.4487047 -1.4061176 -0.3371997 -2.658758 -3.4050512 -0.79722905 4.672835 -1.5499781 1.7356288 0.5065309 -0.1567355 -2.7270083 2.7307115 -0.12939869 -2.6356802 -1.3052866 5.965696 5.353464 -6.2667003 2.8792198 0.6889323 -1.8500146 0.51560366 -0.8957466 -2.8654132 -1.3089707 -2.0175087 0.75630856 -2.544715 2.5837512 0.02641398 1.35495 0.46456042 -2.9397197 0.30239293 -3.658901 -2.7884178
1890 -0.34636596 6.242409 -5.0789313 -5.9140077 -2.6415799 -2.3105342 -2.066369 1.619671 6.865645 3.5724466 1.7178468 2.954821 1.3190055 -2.9672773 3.4004333 -0.79717535 -3.1995866 5.448346 0.50667197 4.3308773 -2.7664387 -5.4003477 7.4804487 -3.1435921 -1.1679122 0.6687715 -0.59335667 -1.325859 2.4077067 1.8487048 1.8896406 -0.8739084 1.2451165 -1.641001 0.97688454 -1.1448021 3.902252 -2.4838643 -4.321594 4.59045 0.37779108 3.341196 0.85318744 -1.2087077 1.6248056 -1.3171479 4.1654615 -4.064205 -0.45242423 -0.17031594 -1.8945057 -0.61999905 0.31912726 -2.1010406 0.62804866 -0.944986 3.0393755 -1.1608348 3.57588 1.5462521 -2.452583 -0.5935462 -0.5753016 0.36926436
1192 -5.4954143 0.57920897 3.8376281 0.9935242 3.9149776 2.2026784 -3.6963062 1.3161215 -1.036947 0.33970886 -0.16700764 -0.25940102 -1.0072956 -2.3797047 1.3187876 -3.1885786 -1.7799182 1.8346398 -2.9736755 -2.6040761 2.102182 0.1648703 4.0902243 2.2518897 -2.791109 0.09914587 1.9827318 -1.6980741 -2.6888463 -0.46203488 -0.29931447 2.8879597 -1.3692639 -0.94062567 2.315952 1.2951919 -1.5093297 1.6583114 3.107371 -1.6505176 -0.8989783 1.8080885 -2.4473517 -1.059749 -3.6461713 2.5812628 0.3477095 -1.1679307 -1.4352995 1.188711 1.6108506 0.9696226 -3.7243721 -0.5198817 -0.24366912 3.3962672 -2.061727 0.5029724 3.8401697 3.2323813 -1.1770167 0.44400594 -0.5287017 2.218628
876 -5.538851 1.2735151 1.3978859 1.2740769 5.2991185 2.0012925 -1.9555975 3.9502459 -1.6537043 1.6048073 -1.606292 1.5006046 -1.2191076 -2.7833374 2.6091783 -2.0193348 -0.2957738 -1.362142 -2.6208942 -1.0910681 2.7203379 -0.07842919 3.4155467 0.73375136 -1.3781705 2.024392 2.7843165 -1.979971 -2.3119566 0.5088717 1.0073147 3.8741736 1.7368417 -3.4115756 -0.5976531 3.4523196 -1.3606226 2.5435832 2.4156656 1.1378102 -2.1624749 4.148613 -0.71365726 -0.8907854 -2.8155808 3.0607085 0.09347042 1.3489373 1.0631123 2.8078704 -1.568087 -0.5536118 -1.9736482 -4.419271 -1.1774259 2.4786081 0.21832304 -0.7463563 2.6175203 1.985887 -0.17393903 -0.43726912 -0.6755323 2.8170087
1107 -5.3459463 3.3735676 4.7547226 -0.0810203 4.4608736 1.2546604 -2.8294656 2.6661463 -1.9375899 -0.5431517 0.2689426 0.70609784 0.7161283 -0.22222276 -0.37796286 0.54987365 0.33128446 -4.130319 1.6240927 -0.29607213 0.31234345 0.7579441 4.2632236 1.801507 -4.5092783 1.9944817 2.7566967 -5.0255 -2.8735259 -0.43274075 0.60476017 2.6008112 -0.32373235 -0.1220879 0.41551772 4.832368 -0.98490053 0.6358721 3.5611873 0.7539684 -1.5029409 2.8723588 -2.1665006 -0.22670554 -2.9246714 2.2522523 -1.7184497 -2.3730483 -3.2300012 1.3250543 -0.73821765 0.8203294 -2.8469162 -1.2611506 1.5663843 3.02558 -0.9994279 2.8819475 2.9936934 -0.7404196 1.4038421 0.38561183 0.05650636 3.8775373
2326 0.8144153 -2.069673 -2.717788 3.3185792 0.6343691 3.5214043 -1.5391561 -0.28282484 -1.1900885 -2.3254962 0.7525171 -0.18775383 -1.535671 -0.6027706 -0.9848629 -1.217935 2.3240626 0.7362714 1.7825578 -2.2057316 -0.92708653 0.748278 -1.8915995 -4.604257 -0.7639986 -0.108712934 5.0737042 -1.9250388 -2.7610326 0.8694967 -1.5371349 -2.4836981 -0.24239203 0.57627517 0.79382586 -1.2544914 0.46423814 -1.614813 -5.560496 4.464426 1.8317381 -5.243422 -5.831759 3.2295146 4.6238494 -8.991361 1.4718884 1.7811853 3.9542916 -3.0114293 -1.9880224 -0.42663747 -3.4459915 -2.4518092 2.6465323 -2.6550117 3.6781116 1.2399981 -2.7433941 -0.011054745 -2.541952 -1.0372155 -3.1732054 -0.17077452
1231 -3.6472635 -0.2566123 3.8883383 2.597956 5.878227 1.9972401 -2.547155 3.0258987 -1.6978722 0.7416693 1.0706308 1.3233901 -1.5524125 0.25377336 1.7167817 -2.10797 0.93348926 -0.43658733 -2.6457493 0.96234924 0.8047153 1.6862123 3.9967966 2.60205 -2.5270104 1.6487362 2.7922897 -0.93943816 -0.36231133 -0.3997184 -2.2491207 0.68984956 1.2429119 -2.5655282 -1.0371045 2.7041156 -1.0430626 0.67686534 3.294887 -0.08095514 -1.2171794 0.55063117 0.50782657 0.9605954 -2.5432513 5.1244626 1.9312001 -1.4606332 -3.9585216 2.8860333 -1.2003454 0.31114602 -4.5037813 -3.9575927 -1.1372601 3.8942842 0.09600716 0.1651374 2.3329954 1.3851968 0.905603 -1.5509713 0.4467206 3.732261
359 1.0118185 0.9532357 -2.2535825 2.628198 -1.0417707 -0.45845234 -0.99152195 7.110752 -2.9907057 -3.1762562 3.986824 0.49465266 -6.9666657 5.7732353 -5.3956437 -2.959151 -0.04653188 4.2076864 5.140122 2.488405 -4.889839 2.1354752 3.6067576 4.2526536 -7.797028 -6.5458903 0.9142761 -1.6992589 1.254785 4.019254 0.17205295 8.0812025 3.5360172 -2.578082 -3.5781994 -3.0452654 -1.7184161 3.7628186 -2.2032418 -4.641454 0.20555982 0.6706125 2.3243175 -4.6246943 -3.291152 1.8434458 0.68318015 3.167731 0.9635749 -5.5761824 -4.6705627 -1.3266901 0.6759237 -1.8001002 2.9432652 -0.13018687 -1.4093055 -0.22550887 1.4774125 0.39965078 1.5407162 1.1979417 3.211287 -1.0328287
1075 -5.822475 1.3822116 3.1575816 0.014283629 4.869251 0.13019936 -4.2977805 2.209803 -1.9287677 0.04018444 -0.66757494 2.8449183 -1.7418345 -2.723548 2.307579 -2.6781547 -1.1866893 -1.280164 -1.8034118 -0.6315652 2.5772817 1.3604928 4.6554756 2.3345704 -2.2873511 0.98380196 0.44455206 -3.1581032 -3.0266235 0.4746016 1.1386989 0.8803006 1.4710581 0.80875057 2.5334244 4.144554 -1.8884553 2.4313598 5.2260504 -0.698162 -0.059684496 1.0624353 -1.7581217 2.0911505 -1.6991991 2.9351835 1.7513614 -2.373879 -2.948719 1.7625387 0.5406459 0.099998735 -2.9437957 -1.1764636 -2.3913376 2.220096 -1.1058621 0.020384608 2.2069983 -0.92733794 0.9979088 -0.4026554 -0.02244858 1.1367749
1289 -3.9705749 0.5878604 2.3247838 2.2780933 3.847759 1.0561591 -3.7313712 3.700457 -0.6983165 0.2346216 -1.4341561 1.4832156 0.1105895 -1.4637492 2.8963666 -3.1964152 0.361472 -1.2306538 -2.9984214 -1.7447602 0.9154461 0.49006787 1.828114 2.2861373 -3.456894 -2.1147075 3.671056 -1.0956761 -4.29051 -1.6471791 -0.76873016 2.2395663 0.7612037 0.31742877 1.5497148 2.4944296 -3.6922784 2.7604928 2.1183016 2.4960525 1.4410743 5.060826 -3.7608476 0.028058605 -4.3082495 2.9243965 1.445794 -0.1698463 -0.28084263 3.441523 -0.8400061 0.8973729 -3.8503199 -0.8266655 0.38939232 3.069112 -1.5192072 0.97209156 3.4685855 0.483027 1.4405199 -0.32445586 0.7492685 3.3625827
1318 -5.2127814 -0.63624454 3.5544147 0.7258165 5.0704403 1.3261406 -4.052947 3.0063345 0.88937455 0.7635515 0.030433394 1.7116739 -1.2952504 -1.1184525 1.2226893 -2.8498747 -1.1302602 -2.1496696 -3.3743162 -1.4869891 1.0054227 -0.26202798 3.1923006 1.5129027 -5.2111726 -0.2701867 1.7893101 -2.1807046 -0.9133633 0.0925694 -0.7533435 2.0740278 0.89984834 -2.722318 -0.009201182 2.8089852 -1.5575458 2.000502 1.5867137 0.6914071 -0.285068 2.942971 -0.9375975 0.595507 -2.8264625 2.7474947 -0.6016972 -0.9027246 -0.26971173 3.3548584 -0.17276202 2.4767907 -3.4955328 -2.376374 -0.50108725 3.0311427 -0.94273484 -0.3206834 1.86795 1.6783762 0.5481637 2.5088632 -0.98779714 4.0343637
2087 1.0320772 6.183464 2.184986 1.990993 -0.39843872 3.3194666 6.8592796 -1.0423352 -0.19090432 -3.9164643 2.1373038 -4.0369515 5.811108 -4.012895 -4.1262493 -1.1758221 -0.14019473 -3.2679107 2.0647943 4.467577 2.5838878 0.9639697 -3.6105702 -2.6185865 6.2573237 -4.3192954 -1.4303035 5.2168684 3.652526 -2.7960336 -2.6074052 -0.75070524 1.9864838 0.3087721 -2.757082 3.7319233 -1.8090976 -1.3596435 3.5246544 4.9622726 -3.3796976 -1.846118 0.450455 6.536599 1.0752602 2.6697097 -1.0675354 2.0004208 2.609734 -2.585172 5.7560425 1.5248485 -0.40056536 -5.0452447 -1.9606196 -3.2091238 -2.5162294 4.277116 1.7649314 -4.2656736 2.038357 -3.0002873 1.0749639 2.3922265
1045 -6.2819276 1.1518741 3.6633694 1.2442145 3.2499301 1.602696 -2.0349166 2.2255552 -1.4193848 -1.278252 -1.2537767 2.5505493 0.31790298 -0.6605425 0.79433227 -3.0694578 1.3389784 -2.2317843 -0.90174496 0.15474568 2.2282033 -0.04989974 2.7806716 2.3929055 -1.8756906 3.3026075 2.595407 -4.4433985 -5.590671 0.47184426 1.1258413 1.8468428 3.6770318 -2.7601297 4.0512276 1.8665522 -3.0182192 2.5159366 2.1975968 2.2034612 0.08234668 0.91857857 -1.8913978 0.95352733 -3.902287 2.5193748 0.030287573 0.011742221 -2.9459903 0.48670903 1.5512042 0.68808055 -3.8235962 -0.47391665 0.44387284 1.6271641 -0.5449816 0.8484464 2.5629716 -0.16632716 -0.92679656 -0.41669354 -0.45915395 3.656781
203 -3.1445572 -1.68789 -3.6099586 -4.3645864 3.5068762 -2.5350282 0.47813553 -1.4840508 -2.513818 -2.846249 3.0628016 1.7920625 -3.4932768 -0.14733137 -1.648645 3.68753 -5.9067583 -4.9989944 -4.133836 -0.06523983 0.13450256 -0.7234938 4.581889 -3.2005088 4.2321634 -6.2095566 0.7495085 -0.48783454 -0.7882991 -2.560363 -0.29917273 -5.6948233 4.1717215 -1.8277309 2.030577 -2.849072 1.6439686 3.049596 -0.3688887 0.71954966 2.2049458 3.9723222 4.8731523 -2.9865751 4.2899194 2.936602 1.2315967 -1.437129 1.0993379 1.6101336 0.7396817 -1.8925716 -1.9426119 6.5378985 -0.010700804 3.0114455 1.8044171 -3.7146716 -1.3847069 0.77707404 4.584826 0.872198 -0.16317943 0.83910364
371 0.21310538 -0.5573608 -1.8738846 -0.029295735 -5.5225925 -2.088869 5.6538253 1.9240186 -3.119108 -1.4537243 -0.1605921 -3.000087 -2.2464561 -2.5616229 1.1533102 -3.7394469 1.7764641 4.680795 4.9960675 1.3176281 -4.0442257 0.41914496 -1.266723 12.053186 -4.758221 -9.402039 9.357053 1.1006767 -3.236959 4.961 2.6311018 5.458905 0.68449193 0.5336461 -6.0579042 -5.005866 5.20937 0.48264423 5.692722 0.58711267 -0.40580195 4.5066247 3.3579178 -2.406192 -3.6136758 7.1937504 2.7325616 0.0137107335 1.0298779 -1.689006 1.9786717 -0.58778936 2.4330652 -2.5743184 1.4295354 0.23930366 -3.9348757 -5.1862864 -4.0753803 -5.302086 -3.0186222 -2.541128 0.27129793 -4.560166
4024 3.2839382 -0.93954825 7.9466324 -1.1086074 -0.63237864 -0.23934019 1.3458537 9.538089 0.84377956 1.2426434 1.6248031 -0.6935939 2.618776 1.5897961 2.1043363 2.3317387 -1.0579543 -1.4036026 1.497377 -0.19278066 -6.2943044 -0.61325234 -1.0512164 2.1921713 0.83734787 -2.402988 2.9330378 -1.047009 -3.2671793 0.22242835 -1.1546707 -1.7449206 -0.6086358 -2.081237 0.32050398 1.7189176 1.9406973 -0.16759606 0.69322574 1.6960926 -0.9725313 -1.0571617 3.0325441 -0.0949115 2.710667 -3.5990849 -2.2924845 -4.7348256 -0.69408506 -3.0281227 0.7588269 -3.898226 4.940121 0.65096325 0.23699406 2.8087184 4.459006 1.3425639 0.5459766 1.1664867 2.2618396 -0.4578218 1.5399517 -1.6218196
1950 -0.6796392 5.211505 -3.3098688 -8.720925 -1.0485276 -4.9768476 -0.17457801 4.8882217 6.1435575 1.6774354 1.525695 -0.02371744 -0.1908221 -2.2088225 0.6286376 -0.17149669 -3.0646102 0.6508292 3.483289 6.7562532 -1.4819511 -3.2508717 3.7204092 -4.4445868 3.9867742 -1.7703886 2.5758035 -1.4245939 1.2644567 3.3049316 1.0760281 0.10061685 -2.3815594 -0.0024501912 -1.96696 -0.36116892 -0.39841643 0.49737504 -3.6102686 4.81957 -1.670615 4.5931253 -0.43855765 -1.6463022 -0.45452785 -1.9705412 6.3345227 0.019160923 -1.3364695 0.19875407 0.35712 -1.3517048 0.46359223 -3.0410342 -1.3826492 -0.9862555 2.908181 3.6297176 2.3821568 -2.0228932 -1.8509575 0.10676312 -1.4947585 4.6087813
1108 -4.1509576 1.4048146 -0.88895506 0.86166346 5.636417 3.9779198 -1.8390899 2.4501154 0.025080811 2.2342412 -2.6888926 3.3197293 -1.0278848 -1.85157 3.8647482 -4.1121006 -1.8056597 0.12253942 -2.7111032 -1.2140697 1.1925195 1.6504875 2.9412854 1.8462324 -2.5977142 2.4329376 0.10852593 -3.8867946 -1.586633 0.6627531 -0.5611546 -0.16278021 1.2207131 -2.1600757 -0.33724588 2.4287307 -0.47217426 1.2088903 2.681052 -0.6279319 -5.023153 2.9310515 -2.4608693 1.0441779 -3.1743743 2.7882457 1.5511786 -3.8846552 0.07564105 2.539087 -0.9423361 0.4913704 -3.268428 -0.96832174 -0.8196189 3.503892 -1.3777502 -3.2663429 3.4476845 1.9056424 -0.48021072 -1.4864336 0.8587642 4.141405
3559 -0.3099273 7.086651 -5.5212526 -3.9411948 1.8860855 0.8139376 6.8111825 2.2360091 -0.44196564 -9.682929 2.1205487 -5.385129 4.7563567 -0.9834821 1.0772158 2.687188 -2.3200018 2.4836824 1.9449382 -2.2751656 6.015899 -0.8235969 -1.1229076 -0.103385806 -1.0418048 -0.7822098 -5.8806267 7.825005 0.09273193 1.8031147 -2.7961874 -4.331598 3.6096206 -2.1357522 1.2998903 4.5028057 -5.535407 -3.757405 1.9373063 7.916679 -2.7839262 -0.9023994 0.8192623 7.789456 -1.8388364 -1.9532294 -3.5593581 1.1118213 0.035670288 -5.24883 2.4971428 -0.4177671 -0.08784838 -3.8705683 -1.5259135 6.5827465 -0.43631035 2.428808 1.5008416 3.6299863 4.5399446 -3.781283 1.3511426 -1.9439288
1538 2.9367595 2.1759684 -1.8361541 1.4667743 -4.446049 -1.8580545 3.1012363 3.2910724 -3.0002766 -1.4372007 5.841885 0.05662255 -5.7951913 1.7924787 -0.3964025 -4.498738 -1.0717838 1.0979149 0.37307957 0.96310043 -3.2311125 6.2433534 -1.2694199 4.228533 -2.1602616 -6.0827403 2.7877262 -1.7890289 -2.7526932 6.1869187 1.8142147 5.2807755 3.9327059 2.6455548 -3.5860736 -0.612049 1.9001734 -2.934437 -1.8450785 -1.242159 3.3625445 2.572954 0.5419124 -1.588447 -2.722247 2.5046225 -0.23349583 -0.07799887 0.053035613 -6.7640142 4.3421054 -0.25752863 -0.2669452 2.8248928 -4.902703 -1.9569609 -2.421547 -0.75119996 -4.4875717 1.1543711 -2.1039996 3.5988858 -3.0468397 1.6801571
2797 2.2023563 -5.1077733 1.995827 -0.86959565 -5.684372 1.2329452 -0.021301182 3.5698223 -0.9340789 0.43269828 -4.7305965 -1.3810331 2.2918065 2.8096626 -1.0891342 1.9602164 0.7753975 2.6804297 -0.21500894 3.803209 4.9962206 1.1509138 -0.40655458 -0.6384111 5.5811024 1.862199 2.6944845 -2.8362067 -0.11444033 2.1064808 1.245944 2.1734347 0.40552163 5.190674 2.163386 0.82970667 -3.4797955 -3.7165475 -0.53334415 3.5151184 2.2500217 0.3392655 0.048496947 0.20099348 4.157906 -2.136104 0.00028454405 4.0300527 3.0573926 0.2604276 0.50897557 8.33001 -0.28239173 1.0794693 -3.0659893 0.78314906 7.94826 -2.8426504 -1.9336293 1.566984 -4.772304 -2.762322 0.3554015 -0.88795227
382 -1.7226413 4.430619 0.15913211 0.88394034 -1.3846842 -4.7427406 1.9259533 -0.8976358 1.5325274 0.51124823 1.8935598 1.917323 -4.564646 3.5775805 3.1484678 3.5638976 -3.2991066 0.056096964 4.140068 -5.2001777 -1.1105232 2.5162616 2.6946754 4.2276077 0.8218043 1.3199189 0.31636786 -0.47433674 -1.4001435 -0.2505967 -0.885111 3.3662963 0.08573323 -2.7775064 1.3853819 -1.0055331 2.4676502 -2.8437197 2.7837405 -3.7323127 2.0974846 2.31344 1.8707184 2.6478274 2.970706 -1.5998721 0.109323494 3.2196474 -0.018464189 4.8508673 -5.802528 4.7237234 2.2961233 -1.5594417 0.6985413 -1.0802902 -4.352547 3.3832257 1.9894649 -0.40805602 2.569071 3.8863962 5.1683435 2.8998058
1096 -5.27352 2.124914 2.120868 1.1019819 4.1062903 3.747735 -4.748477 3.6327355 -0.98311836 2.2401414 -0.8263443 2.118971 -1.9551853 -0.49443674 1.635349 -1.7351491 -1.9970479 -1.9096799 -3.2810292 0.29675552 -0.33646578 0.791777 2.2148392 1.2882894 -2.612582 1.9837885 2.6778703 0.006187377 -2.5987105 0.17402391 -1.4626104 1.2723218 -0.6697516 0.2494877 0.6522384 3.7307155 -2.6737273 3.9212434 3.2821827 -1.1557841 0.8977831 1.7598577 -3.8176506 -0.17460859 -4.197999 1.8245419 0.20526478 -0.55560154 -1.4699451 2.9398224 0.6334413 2.1402194 -3.7732637 -0.6605286 1.8833734 2.3619316 -0.7142194 1.7580428 3.7681415 1.1667392 1.450643 -1.4653003 -0.030019477 2.5535169
1426 -0.08862409 2.8223267 1.4030118 -1.8208299 -4.1311736 0.7727613 -1.707404 -4.4294157 -1.8617994 4.4509883 1.9770867 0.4761099 1.9862211 0.13247004 -0.22281983 2.1108265 1.8132764 -1.8303683 -1.9595579 -2.158917 0.64697266 -0.5122107 -3.7524896 -2.0787268 -0.07450457 3.0127063 -2.4637089 -0.590628 3.3949947 0.57692957 1.6478418 -1.677951 -0.94192284 1.809883 -2.49063 2.0446913 -1.762559 -2.9840953 0.31902176 -1.5153131 2.5687542 -0.49037075 3.7484612 -4.128972 -4.7483544 -3.0387821 0.6272208 -0.08044501 -1.361847 -0.52426326 2.745423 -0.7162095 2.6443639 5.0086436 1.4357048 -1.4476968 -4.0548725 1.6057925 -2.414822 -0.5108337 -0.016428642 2.6598895 -4.4414907 -0.953354
2871 0.7743317 -3.299847 -2.0893552 1.4631929 0.2870282 1.3766878 0.012008185 -3.3162296 -3.0139427 -4.2704005 -1.3390408 2.6848092 -2.3734279 3.7821152 0.5797616 -3.9053721 2.025297 -0.33035806 5.897 -1.3040091 -0.69602555 -0.39938626 -0.44190243 -4.0986495 1.0993292 -0.7775573 3.7273712 -0.36712915 -1.3344165 -0.3994361 -3.763946 -2.1117325 -1.0043674 2.9245348 -2.9190664 2.0811245 1.6010325 0.39462832 -3.5259478 2.9810584 -0.9141177 -2.034839 -1.3354095 5.128348 4.127279 -4.238173 2.4253616 1.7064621 1.6425122 -1.0908439 -1.003474 -1.8743523 -1.9234104 -3.9327967 4.5877433 -0.9483186 3.217928 0.18905255 0.51593 1.1803024 -0.81598556 -0.71328115 -4.205628 0.3196981
367 -3.0411375 1.6242136 -1.5765237 4.361428 -2.134206 -0.27465102 -0.91187304 6.985347 -1.1088358 -2.3062117 3.2854319 0.34370336 -5.409385 5.4714413 -6.392651 -5.1924353 2.019206 3.162292 0.38396665 -0.30301186 -0.68902653 0.005083361 2.1492145 7.925688 -5.7122397 -3.4293878 1.6478425 -0.7496302 -3.532342 6.144403 2.33223 8.503919 3.9974911 -3.345777 -5.3899264 -3.1810417 -1.895394 1.3130888 5.3211765 1.2931907 0.3101418 4.3510685 3.5087318 -3.634033 -5.279046 -0.72562915 -0.194905 2.8016174 -1.6563371 -6.793871 -6.707826 -5.4920144 -7.6992297 0.7520467 -4.7586684 1.2728895 -2.4795856 -0.7680057 0.24703112 2.6612387 -1.2190645 1.7841455 6.0019655 1.4081917
1099 -6.116751 2.2976367 2.886318 2.6534727 3.1793242 1.2078134 -4.3016343 1.7431803 0.5303287 1.2876817 -1.8029138 2.93466 -0.9885233 -2.4319913 0.047344893 -2.4068956 -0.8130015 -0.93368596 -2.4394073 -1.2753565 2.6193268 1.2790154 2.6931574 0.32368457 -3.0240948 1.1261038 1.1805772 -2.2823997 -3.55224 0.63870203 -0.22662699 0.99271435 -0.0914853 -1.5159608 2.5408986 3.3667583 -3.5575714 2.811777 2.1799576 -0.3841159 -0.6534563 -0.866869 -0.8320303 0.9979215 -2.1974406 4.3506336 2.4324117 -1.4646157 0.055741694 1.7215073 -1.5815996 0.75425917 -4.991441 -2.2083476 -1.49839 3.5842102 -2.927982 -2.527162 2.5872612 -0.82206225 -0.056359284 -1.2494994 -0.79613525 3.8704276
1320 -5.5835648 2.6769898 3.6644611 1.1847403 5.5620723 3.4154277 -2.6051106 1.8706189 0.6844185 0.67726016 0.37904984 4.223228 -1.1939025 -1.0112429 0.17928992 -0.9953275 -3.808699 0.3049797 -1.563119 -1.0507343 0.034874063 0.21752752 0.48317963 3.9495325 0.0015452142 1.0752927 2.748896 -5.34586 -3.8175404 0.30810168 1.4021921 1.1873869 1.6288233 0.20860817 1.6843374 2.5558317 -2.7358992 3.6887584 4.215218 2.077706 -1.1473695 1.160369 0.042888336 1.2857704 -4.3319774 1.043237 3.7736232 -0.89224774 -1.7733947 -0.06510574 3.7718596 1.7273256 0.9855433 0.39883837 0.9137858 3.9670813 -1.5170733 -1.0017002 2.5896804 0.058480177 -2.4540322 -0.7774884 -2.129825 1.2670912
1975 -0.18319073 3.748625 -5.8562245 -4.7132263 -3.1151273 1.0815296 -1.5881119 1.4570796 8.812266 -3.552229 1.2709746 2.7758038 -2.0321968 -0.54336804 3.872058 -0.6578786 -1.3583981 3.2122562 -2.4185421 3.7367067 -3.3335028 -1.6510692 2.1721385 -4.9936523 4.7140846 -0.6605139 0.04980149 -3.289443 3.8771062 -1.3251708 -1.3728282 1.2533842 0.28412303 -0.2443096 -0.849812 0.8519451 3.660181 -1.1189184 -1.7291399 1.0600104 -1.7826746 4.745866 -0.61540955 -2.0411127 0.12018043 0.16547789 7.2485166 0.42308757 -0.4298704 -0.3554892 0.3926338 0.5016333 2.075838 -3.5158238 0.39746076 1.9203149 2.9294581 -1.0068967 1.265657 -1.6628374 -0.257974 0.50662404 0.34453782 3.9035149
1969 -1.3046445 2.332488 -3.8415565 -5.9465857 -4.253043 -0.31352523 0.6357774 2.8708982 6.760699 0.40093818 0.18479219 2.3543725 -1.303294 -2.4603806 3.1618357 0.9159439 -1.827076 4.9586043 1.2976816 4.032111 -4.0834565 -0.8110043 3.8992145 -5.0431347 3.6980371 -0.705371 1.4151576 0.47996387 1.8162565 -3.0810997 -1.3208445 0.037686873 -2.8991144 -3.0766804 -0.9871641 -0.07872959 1.5743856 -0.7742918 -2.617144 3.683399 -3.433955 -0.13663685 0.91714776 -4.172204 -1.0636349 2.6612322 5.711678 0.06646855 2.8651783 -0.5593247 0.49495524 2.3419116 -2.730879 -5.4936466 -2.4008658 -4.8423877 0.14012176 -1.6176978 1.9505839 -1.281321 -0.67385924 -2.7032359 -3.2253678 1.1741545
2089 -0.543276 3.2082791 2.4603803 -4.7612767 1.1672789 2.945752 0.11439472 0.30951995 0.55561775 -5.270153 -1.2036341 -3.1891866 1.237351 -3.396122 -2.9059973 1.3752502 -1.1137964 0.99772674 2.5981805 -0.5583128 2.9847171 1.0766628 -2.0060065 -0.86006725 0.31923887 -2.2557604 -6.247625 5.252667 5.0429444 -0.8907995 -5.3472357 -0.8104324 2.9405205 -2.651848 0.1832244 -0.34064546 -1.5082592 -1.1543982 1.0526624 -0.940738 -1.5199523 -5.0037327 -0.9624393 7.324955 0.026997251 2.4529788 -1.7976044 0.63537776 5.0933404 -5.491255 3.3231103 -1.3948827 1.6098849 -2.6930707 -3.3547928 -2.2617106 -2.510337 0.8900177 4.205181 -0.9914593 2.3515377 -0.8756701 2.2536101 3.6666276
763 -0.55292904 3.637973 3.7744339 -0.018492205 1.0021386 -5.5671635 3.6885865 1.1843277 1.3382272 1.6327941 1.8480806 1.3904598 -2.6571102 4.5569906 2.2479117 4.618995 -4.3524323 0.10980245 4.8220253 -4.277371 -2.7090542 2.4553125 1.2285819 3.0656881 -1.1913985 2.8513682 0.93085355 0.2820469 -0.47196466 -0.37577337 0.34590778 2.9181545 -0.5283908 -2.74153 1.8313642 -0.43322995 2.5193536 -3.0447452 1.0123897 -3.816695 0.90879065 1.3804802 0.96441895 3.6306472 3.3794823 -0.81842333 -0.881898 2.8630137 -2.3146203 5.306625 -6.4705667 4.2557716 1.4247094 -1.862884 0.25927994 -1.205567 -4.051104 0.5387026 0.39820763 -1.8608689 2.1542246 3.3550892 4.7344213 3.0792792
863 -4.6031227 -0.57532626 2.9798255 2.5109537 2.617091 3.9496324 0.56508636 2.4605005 -0.8272008 0.5337133 -1.1961322 1.3815514 -0.70696497 1.9977486 0.4325676 -2.266485 -1.155972 -0.57843083 -0.4248746 1.192623 1.1523347 0.553396 1.2932861 5.3605433 -2.1492922 1.6785272 -1.2265575 -4.550942 -4.120886 1.7136729 -1.2173259 1.0292237 0.10024317 -3.3281136 0.7099307 3.085739 -3.7425852 1.4924252 3.2778428 1.8238511 -0.20772335 1.7810479 -2.3470285 -1.1104083 -5.3138976 -1.304785 4.1393247 -2.7223318 -3.0172548 1.7683425 1.1378385 -0.614656 -2.7322342 0.7500073 -0.32780623 2.8630211 -3.1582959 -0.39362258 2.072081 0.68397224 0.05490751 -2.8420687 1.2849021 4.5487447
199 1.5326093 -1.3957677 -0.90552837 -6.2752185 2.2184556 -1.3791534 1.5035082 -0.09031218 1.7833651 1.1241363 1.5103854 4.844047 -2.9509473 -0.8371301 -1.5243827 1.1030294 -1.2050128 -5.9013643 -1.3643273 -1.140157 -2.0999558 -0.4493648 -1.4186971 0.70197415 4.898903 -4.862809 2.470826 1.699624 1.1236552 -3.7269456 0.5802837 -3.877885 3.8395855 -2.8475223 3.9764411 -0.99871594 1.7079844 1.8358665 -1.1782029 1.237119 1.5771477 1.7532004 3.4554594 -2.2156117 5.433402 1.5182722 2.1958551 -1.0984704 2.352274 1.1038041 2.402527 -6.044407 -3.6763077 6.716439 -1.1299775 -1.0917103 5.3297915 -4.093744 -0.4411144 -2.7384043 1.3708441 1.3382635 3.102776 -0.17718504
3616 -3.8579648 -2.1184292 -0.03659224 4.4928937 -0.52169454 -2.0820277 -0.31743544 4.1601453 5.082916 -3.7029676 -3.8071785 0.88868874 0.773637 -1.4882995 0.6449017 -4.580024 -6.2748632 2.3496096 1.4973407 -0.7385271 -4.879994 2.8613524 -5.5817623 -5.4168 -1.6526717 -5.230652 -5.4712815 9.353126 -0.8230394 -2.1503577 -0.45123675 -1.6419072 0.6162738 3.464656 1.777583 5.1829524 -3.2171526 1.4873643 -2.052996 -1.577608 -0.20795183 2.2751405 0.87134415 3.0371013 -0.38523948 -1.1135637 -4.607669 -4.742382 1.5120057 -0.0054667345 -3.8310163 -0.6738585 1.1623327 2.1544912 -2.0107734 0.008349964 -1.4571472 0.3858807 -1.4022164 -1.0517348 0.24952303 -1.3847951 3.191404 -3.2687578
360 0.88028383 1.8065677 -5.9467263 5.0291915 -2.8658986 3.8447728 -1.9409599 2.4813635 -3.4050364 -1.6376859 7.7567716 1.8260181 -6.054774 4.355011 -3.4158692 -3.7763584 -1.4283454 2.872781 2.5141094 1.5375844 -3.1611056 0.39642754 1.9136326 5.891942 -8.267926 -5.851671 1.629033 -1.8988523 2.6535993 5.351842 0.74455774 7.481711 3.8885624 -3.324272 -2.1843333 -3.514635 1.308427 -3.4685652 -0.4020186 -3.9796011 -0.3742306 3.0813653 2.6375287 -1.9650337 -1.5171112 0.7191943 -0.84400135 1.499543 2.9722514 -8.207407 -3.4037755 1.5198705 -1.3617668 -0.10949802 2.275334 4.4465895 -4.0245028 -0.62343997 -2.2194104 0.4656587 1.8223729 0.4632584 3.7792134 1.7066352
862 -5.051292 0.20724711 3.0396323 -0.18240684 5.160475 2.9931607 -1.8434991 1.2247924 0.4997291 2.2859845 -3.1411781 4.928457 -0.18489887 0.33408076 -0.5969544 -1.8304762 -1.7196712 -0.6736412 -3.5306077 -0.51030385 1.4908687 0.9962004 2.6625109 2.4268217 -3.0827448 0.64672714 -0.24851976 -3.7065356 -2.1647882 -1.3185787 -0.09220914 2.637546 -0.35723794 -3.0046246 1.5704871 3.5102217 0.17443413 1.6277902 3.5751274 0.60351455 1.8061701 -0.3770547 -1.0655811 1.900737 -3.7131026 1.4836209 3.833982 -1.4865828 -2.520713 1.1023223 0.08799306 1.8929497 -0.81600606 -1.6793095 -0.6264891 0.9327773 -1.9709935 -2.584016 3.1126 -1.3955605 0.447563 -1.2383626 -1.6002392 1.9129621
2594 4.8479524 -1.3721784 -3.0670455 1.0699146 -3.7450843 1.2542771 -3.307542 -3.0442657 -1.9877934 1.4153615 -4.429726 -5.3371305 0.13370873 2.0535982 1.9820305 1.3660853 2.5395234 2.0300686 0.8510901 0.6962523 2.7757905 -2.5414963 -0.033514883 0.12969299 3.9430299 2.3023517 -0.4120595 -3.1465254 -0.8999308 5.781809 1.2755569 1.6300325 1.9705404 0.34454057 1.9047387 1.0393893 3.0316532 -1.9022787 0.8083728 -1.0038656 2.4345496 -3.084886 -1.7770724 3.2183735 0.5698989 0.10375885 -5.342465 -0.17028406 3.6804779 1.4767379 -0.41800377 7.815688 0.71032137 5.0115023 -2.9963021 -1.0344272 8.1536045 -3.433372 -4.6828966 3.8186767 -2.26949 0.9901813 2.8306017 0.049206596
2243 2.9727476 -3.275026 0.6477979 3.4183495 -4.3874407 -0.2191422 -3.0959306 -0.049290206 -1.0279124 -1.5385847 -3.8901243 -3.1816769 2.8614058 2.332264 0.15387233 -0.33945784 1.4394698 1.7186725 0.32655197 6.5925446 3.5833762 0.02786349 -0.170082 1.5167074 4.888004 2.5133295 0.86804694 -1.2974114 -0.29775688 0.4013306 -0.7623124 2.0503206 2.6046586 5.4519663 2.4180553 0.13666758 -0.51218057 -1.4249613 -0.7898179 0.6612526 3.4546697 -2.772084 0.16144224 1.1587399 3.3198867 -1.5629014 -0.1282959 1.922152 0.6280731 3.4063594 0.80875695 4.9484425 -1.8169703 4.5236416 -1.8302014 2.207303 6.4325857 -3.3345053 -1.7251642 0.30596426 -3.0123742 1.1017951 1.0591046 1.5098722
2126 -0.54423666 -1.600581 -0.024032632 -4.4846654 -1.717198 0.23545158 -3.9304647 -3.7997246 -0.6301812 4.3880076 0.41321403 0.9666955 2.1107416 -0.80777156 1.5037651 4.1900263 4.48505 1.0208259 2.2861629 0.6678381 -0.82977873 -1.228204 -1.5385177 -2.9350321 0.5979132 2.8276033 -5.4359407 -0.8296552 2.8298442 -3.0353782 5.0822177 -4.2915645 -5.7846384 1.3277676 -4.689876 -1.392789 -2.3791091 -4.0874543 2.797907 1.0413879 -3.4912386 -1.2320424 -0.42304805 -4.311636 -7.049605 1.5436879 -0.6274061 -0.04109696 -1.2866358 -2.9730766 3.5347114 -3.126162 -1.5777873 3.0312998 5.2853794 0.49735105 -5.8132677 8.02489 -5.6251626 4.6604013 1.0957575 4.340819 -3.0334303 -3.1737795
877 -3.393015 0.18254498 3.4238849 -0.42462993 7.794096 3.3162317 -2.5022833 2.3919225 -0.7823694 -0.40531266 -2.0172455 2.2154634 -2.860016 -1.0180904 1.0582097 -2.4294763 1.2027752 0.13443744 -2.939305 -2.4556055 -0.2083091 0.22612536 0.73119223 1.1536853 -1.7629914 2.2140627 -0.34194508 -1.4595467 -3.1601472 3.1793928 -0.36618266 0.32397777 0.10074211 -3.9584079 1.9489986 1.80537 -3.656213 4.289144 2.7094402 1.2637306 -1.1890597 1.7516334 -5.145596 -1.1635882 -3.9995809 2.3530774 2.6735249 -0.07700699 -1.8216358 1.8135854 1.910507 1.1287395 -2.010308 -2.5768175 0.37252274 0.6379658 -1.5846671 1.0122008 3.528995 1.6424279 0.9055552 1.881687 0.2637429 3.0414577
885 -5.2044125 1.4445645 4.210991 1.2078236 3.7881286 0.4234259 -2.02656 2.0692804 0.74897444 1.6278157 -3.0426188 -0.37099114 -3.7148874 -2.32733 1.5005305 -2.1737661 -0.5463521 -1.0469109 -2.9695885 -0.33589312 0.43823856 0.6372043 4.139869 2.4997442 -2.8252025 0.3644641 1.888334 -3.4185534 -0.7185139 -1.7050922 -2.5211723 1.5596024 -0.9514038 -2.7977521 0.20782456 1.943051 0.076222 0.372329 3.5530126 0.1568673 0.08072787 0.66305596 -2.9754045 0.5203814 -3.5668912 2.064984 0.80070865 -1.9779102 -3.4226224 3.6171837 1.506562 1.2003613 -3.6055431 -0.37765798 -1.117965 2.6800299 1.0057038 2.2418063 3.5217264 -0.5264171 0.33838195 0.32150626 -1.650994 1.6490355
2305 6.901633 -4.5223885 -0.9122779 0.23203659 2.029852 9.780146 -2.377131 2.3267276 1.3782114 -0.41529217 -2.1094627 -5.716956 2.6771512 2.5732236 -3.808766 2.1067724 -0.0040257433 6.0356903 2.3772042 -0.24309874 -2.6345983 -3.7522411 -0.44075355 0.7763649 5.584039 4.532873 1.0687058 1.72551 -3.2650638 3.2770338 5.1435003 0.7734001 -4.1226907 1.8436649 -2.5619745 2.2549198 -4.214236 -1.0570062 -8.101814 -1.7621039 -1.3904371 -0.16655712 -1.5594827 -3.478099 2.5940309 -1.4067122 -3.0142848 -4.8466024 2.3727384 2.3865466 -0.12675022 7.1852636 0.93420196 3.697265 -1.025542 -3.6097221 6.985547 -2.131222 -0.43638402 -1.4820687 1.9864503 3.3982723 -2.5301628 -0.50295085
2362 5.185722 -1.6429754 1.9550152 0.7050951 -1.9385456 0.044469144 -4.222387 -1.34997 -2.716511 -3.9361753 -3.6484144 -1.667994 0.99522555 3.3545036 -1.1510686 0.08839927 4.1875143 1.5497519 2.1403987 5.231142 2.1652744 -3.7717915 -2.085581 -0.33649302 4.4124827 1.4605584 -4.5685296 -0.9834753 -1.4725465 0.23278056 1.3996174 1.3916739 0.30318278 3.931206 3.6582518 1.7519892 0.6690707 -3.1676311 -1.557133 0.90373224 3.7748294 -0.4295756 -0.32519355 2.4061604 2.1871762 1.6621313 -1.3556314 -0.3041939 1.8045297 1.5364144 0.109755404 7.8778353 -0.9864321 2.0328033 0.14499432 -1.1610233 6.5331 -2.597064 -4.9077125 1.988566 -1.5950851 -0.21314867 1.2601987 0.7300142
2296 0.5387924 -3.0203068 -0.5733726 3.0283499 -6.438891 -0.65961546 -4.547915 0.916655 -0.8183553 -2.9833968 -4.5305276 -1.9706421 0.8023166 2.2554471 2.46162 -0.11955897 1.9802362 1.3915199 -1.261018 3.4952836 5.10176 -4.4171987 -2.166783 2.6512713 5.727079 0.7045303 2.1998253 0.74924415 -2.9568672 2.0532289 1.2134517 1.2293813 -0.10824961 3.6906018 0.7570233 -1.1061049 -1.3222075 -0.8554994 2.8058345 3.2542229 1.8554285 -3.5191212 -2.0480783 1.7050834 0.9023431 0.3971314 -0.65279996 -0.3182384 4.5744705 1.9734868 1.2090712 4.403447 1.2696621 0.4148171 -4.0304694 0.3711073 9.150489 -3.7503765 -2.5935273 1.9544024 -1.576269 -0.77481323 1.693562 -0.8036798
272 -1.018452 -2.2997348 -3.7044911 -3.2448037 -1.561403 -1.3477855 6.6085725 5.0869317 -0.5366822 2.2037427 5.2637825 5.774397 -1.2747104 1.246831 -3.5646615 3.1493485 2.813075 -6.864874 -0.7198261 1.0967648 4.1490192 1.4564034 0.8335764 0.6270543 -0.55646735 -0.5685001 -0.21192686 4.857815 -1.9103944 -3.8747084 -4.7617674 -4.396737 -0.52527666 -0.44190344 7.3071218 -4.6115212 3.431337 0.15484656 -0.42442062 -3.1237488 4.324186 4.0322833 0.25475514 -2.7261057 2.4758482 0.39290482 3.4761314 -4.548941 0.7522531 0.7899863 0.7762096 -3.5045552 -1.228835 7.070751 -2.1305208 -2.1537435 5.6238146 -1.8906755 -1.5823702 0.17802265 3.961777 -2.0433211 0.10512106 2.7086115
564 -6.0652404 1.02991 2.7004035 0.7453789 3.2584069 1.7152109 -2.8251524 1.8395302 -0.25949088 0.30815673 -1.7470237 1.2242721 -2.1384604 -0.009433721 0.003375307 -3.5705245 0.14768265 0.33389592 -1.8567021 -0.1258957 1.8660802 0.8134419 3.2681115 3.2572227 -3.236921 1.2251321 2.5158453 -2.7654128 -2.8384993 -0.70552725 -0.6640765 1.7417315 -0.81599367 -0.57067716 2.2306802 2.2351413 -0.27401325 2.4837 3.5648096 -0.2424178 -1.381049 1.2893379 -3.7262464 -1.1002308 -4.6972203 0.88215 -0.37040076 -1.0620542 -3.3172197 1.3062705 -0.6999443 -0.32445905 -0.8023274 -1.2718463 0.5221947 1.6108437 -0.7253627 0.57598555 3.2713995 1.4143422 -0.64225185 1.4241712 -0.79291666 3.0702932
1324 -3.689953 0.9763712 2.5439646 -1.2682487 4.9667025 0.8199704 -3.295089 1.0830852 -0.5652875 0.14152403 -1.4281552 -0.6021972 -1.1394913 -0.18870738 0.05421838 -1.4210974 -1.2619872 1.248684 -5.358594 -2.5836816 0.96284604 0.5898784 4.2168627 1.8043547 -4.4164734 0.7632922 3.7337887 -2.1003573 -2.9156723 -2.904452 -0.78421414 1.944415 1.2108818 -2.659141 1.5385591 1.4666423 -2.3911548 2.6679564 1.2399585 -0.6047665 0.63785505 1.7951001 -1.8577166 -0.9138875 -3.91325 0.31323865 0.5219128 -1.8438272 -3.413573 2.0420642 1.9253753 0.3071138 -1.618113 -0.27118158 0.3194029 2.0633223 -0.7353683 -0.2295528 4.9293356 1.6991506 -1.2492038 -0.45724705 -1.22536 3.3540874
1651 1.6968952 0.29714528 -4.2020946 5.134226 -4.440383 -1.7609358 2.9079287 3.539396 -4.4246693 -0.9694376 2.8327005 0.33197382 -3.543462 -0.123063944 -5.6077604 -2.0309129 -1.4346452 3.0148592 3.2110333 3.9944603 1.6692563 4.0661044 1.9131888 5.0098257 -4.990651 -7.721002 -0.55516917 -1.0084903 -1.9765666 4.06833 3.8270183 4.8232145 2.1126873 1.419321 -1.0440285 1.1431317 5.4980307 -3.9213815 0.9183482 -0.9369704 6.9593306 -1.4330854 -0.45853263 1.4516009 -1.1430128 4.516351 1.9802628 1.9304749 -1.8039379 -5.3798537 -2.035678 -2.9286819 1.0273927 -0.21028017 -2.9801667 1.154747 -2.785431 -0.6461945 -4.0304685 0.59810805 2.5309732 -0.10719222 -0.48135683 -0.660912
3851 -2.3978603 4.10928 1.669696 3.1554322 3.1896331 3.3331454 6.5347533 -0.9159351 1.9391843 -4.053669 -5.440084 -2.6462388 5.9044547 -4.1275573 -0.6323299 1.0193679 1.2270706 0.25485748 1.15282 1.6587923 3.260961 2.0542805 -1.5522783 -3.2147741 6.168845 -1.7603544 -4.2311745 1.1598893 3.8678167 -0.8607376 -1.1920753 1.7735394 3.6994739 -2.3585396 -1.9851903 -0.7180351 0.495573 -3.0556471 1.1361507 -1.1068394 1.2145985 -5.4905443 0.7899811 0.9506074 1.3440021 2.59516 -0.18285239 0.7887994 4.342711 -2.6922445 4.4740634 -3.4960375 2.3451693 -4.069767 -4.701323 -4.2046194 -3.642899 1.8584552 1.871433 -1.086484 1.3918108 -5.159736 2.2473805 -0.3911192
697 -5.469892 0.472788 3.5056026 0.35486832 4.9046335 0.42891043 -4.349389 2.6668515 -0.41445348 2.1279092 -1.5209341 -1.2919155 -0.75890684 -0.8320646 2.3048391 -3.8809898 -2.1192756 -0.4813345 -3.5877206 -2.1420486 2.8698514 -0.52330106 2.8136005 2.529867 -3.634551 -1.0133914 1.12514 -2.9685395 -2.4157493 -1.4202155 -0.6161295 2.8659403 0.7988636 -1.862698 1.845454 2.0662668 0.98482287 2.6773098 3.2334456 -0.33355576 -0.37550592 1.9573345 -2.4971027 0.9178389 -2.801815 1.3144021 1.1718868 -1.0360523 -1.6784027 2.3490076 1.1627734 1.0920352 -0.90891653 0.5206332 -1.2523559 2.8943934 -1.8206174 1.1327118 1.542759 0.8880452 2.0486066 -0.4447732 -0.61522955 2.8388884
2293 3.9168372 -2.5473368 -1.3300964 2.782205 -0.06487085 0.6405875 -4.011402 -2.8190117 -1.0718673 -3.37597 -8.377588 0.18377179 3.0991673 1.4470112 -0.5208772 3.869641 2.6900792 4.0117946 -1.0259621 4.2855496 1.031327 -8.005524 0.15977664 1.9274057 4.437539 2.5519829 2.153794 -0.2711292 -0.90738803 4.944941 -0.7329102 3.0674655 -0.43152595 3.7805998 1.5277063 0.7880334 -2.4692016 -4.533476 0.8956995 0.79959756 2.8467138 0.09907134 -4.0859075 -0.16275185 4.9315705 -3.0177884 -1.5761446 -1.5626582 1.1033385 0.6731142 -1.5908233 8.893542 2.1962721 1.247453 -0.095402904 2.6870916 2.8126483 -2.5682676 -4.64555 -0.45951054 0.41289178 0.59416443 2.7312298 2.0219734
361 -0.776593 2.103046 -2.6940022 1.1011137 0.09728062 1.5267596 -1.4190336 4.98047 -3.0411398 -0.7573463 4.568836 -0.2522483 -6.499724 5.1516314 -4.7319865 -3.3853426 0.43890032 5.3154387 3.1174018 4.0537643 -3.073548 1.7638215 3.0004945 6.0778937 -8.20806 -4.9975333 1.058687 1.282882 3.88689 2.5267658 0.70771223 4.907637 1.505313 -1.662279 -8.133314 -0.017583037 2.420051 -3.4652257 -0.51581085 -2.1527228 0.32048517 0.9279177 0.58318305 -3.4071083 0.88671947 0.8035108 -2.0848308 -2.3554277 -2.4898102 -7.1630325 -4.3443503 -2.6779947 -3.2359378 -0.41252005 3.2259138 -1.0972115 -3.8993123 -2.1628768 -0.92412025 1.4068261 -0.9327803 2.0813982 3.8178964 0.9928039
1892 -1.4094365 1.25179 -3.1132867 -5.07789 -1.7546978 1.6632736 0.31581238 3.2888083 7.307423 -0.94122547 3.0283675 0.7317648 -0.61506844 -3.3101199 0.58527595 -3.7060187 -4.3359404 5.135585 -4.7420955 4.4642153 -4.364686 -1.5465822 3.1448576 -4.279641 1.936358 3.1400337 -1.1931596 0.4152617 4.441207 0.8446758 -0.678847 2.0107472 -2.5002787 -1.2886184 0.31567878 -5.827446 2.3726068 -1.0807887 -2.4707556 5.4920077 3.5505023 -2.5056286 -0.8770112 -3.7776854 0.51815504 -0.32154799 7.8241196 -0.024581479 -2.3979695 -1.6327702 0.68766415 2.9969957 -0.7186765 -4.821879 1.2684175 -3.2379167 2.9402227 -0.301178 1.0611603 -0.8026784 -0.70536655 -1.6499813 -4.553225 -0.36742657
2652 3.2448356 -5.9077992 1.7321758 2.5552456 -2.121533 -1.1860179 -3.6172574 2.2095313 0.17392446 -2.0567582 -3.5412354 -2.4081342 1.3803667 1.4478492 -1.0127608 1.0636969 1.2355596 1.0255305 -1.2894183 5.4806137 4.4461346 0.77300596 -0.35073325 -0.6288196 5.1521807 0.27539545 -0.601024 -0.3072891 -0.28845978 -0.6821838 0.86836725 2.2885418 0.21264425 2.6385043 2.8665562 -0.13987069 -1.1707196 -2.4689598 -2.9521525 1.8043294 6.02796 -0.8127669 -0.09837137 1.2933553 0.45103496 -0.6638754 -0.42198136 3.9997058 1.5989202 2.2528462 0.574636 8.154255 -0.67988616 2.151278 -2.9720597 -0.54235965 6.3454385 -2.1136167 -3.3495395 3.164456 -4.051242 -1.3031005 1.2793295 1.1435595
98 1.3805888 -2.7954721 -1.5290643 -5.671843 2.5277205 -2.6224427 1.9007636 1.102489 0.84452456 -0.11372484 1.2787195 1.7602736 -0.87959933 0.10235945 -0.92019534 -0.43023527 -1.2728724 -2.7260482 -3.479123 -0.53233445 1.9362364 1.4386582 0.44194987 0.12553395 1.6541337 -2.1165626 2.9338493 2.4259706 3.5761123 -2.9641669 -4.068717 -3.7486558 2.6281028 0.0063356278 3.728704 -5.693878 0.7484691 2.7431467 1.9461671 -2.088679 2.0049813 1.7550213 5.2132297 -4.3475266 8.048851 1.583761 0.46585897 -1.6631558 1.4235972 1.8585376 -1.1946636 -5.385693 -2.3514602 4.065422 0.29939425 1.0706561 3.8409915 -4.324237 1.3802369 0.33161932 3.759413 -1.7623367 0.35189357 0.5456482
136 -3.5539768 -4.115456 2.1580899 -4.6740565 -2.6558962 -3.3446932 1.3119584 -5.8809767 -4.583595 7.001558 3.0696805 3.2296004 4.9408035 -4.8517113 -2.5242677 5.4060516 1.2804726 -2.2441714 -3.629221 -3.6295133 1.4783317 -5.1801214 -0.05329773 -6.841009 0.29098827 -2.1981304 -3.496045 3.1344674 6.666228 -3.3737273 -3.6019006 -8.285854 5.0709696 3.2926579 7.4287457 -3.0320022 7.9491906 -0.56361765 3.8986259 -2.842297 -1.0215157 4.677398 2.372549 -9.547883 -0.14314361 2.4888308 6.0760875 3.508115 0.7794315 -0.3270906 -0.96567804 -6.6436653 -2.7627232 18.289557 4.5131245 -2.2243998 -4.0884466 -2.8037593 0.7947756 7.8305087 0.43677065 3.4498923 -1.9677172 5.0392075
2042 -2.3486726 3.5353713 -0.6994426 -0.66335976 0.35685742 -0.47879574 4.337738 -3.0032227 1.1659603 -2.5184855 -0.3110405 -5.926376 5.717965 -3.7845068 -1.2717494 -2.773774 -0.6247769 1.1448435 2.6281552 -1.6881224 0.33496922 -1.5859482 -0.032472346 -0.6623648 0.021370657 -0.8126289 -4.8971295 4.8380656 -0.12476482 1.2145854 -6.7967486 -2.8150666 10.316456 -1.1730196 -0.4619924 -1.7314696 -0.4891772 2.0405202 4.703297 0.24620418 1.1337065 -1.419154 3.0361526 6.620871 -0.1351744 0.9486292 -3.4084108 0.24907313 1.4970645 -2.1805863 5.8183036 -1.7854269 2.7368712 -4.7561736 -0.22880767 -5.65882 -0.65546256 1.283227 1.2325766 -1.7927997 2.2222853 -2.240757 1.1975856 3.7342036
1466 0.87809175 2.6416173 1.2263547 -1.3325449 -3.1539867 0.5051093 -2.9326284 -4.9801598 -1.7788975 2.1524584 -1.3815118 -2.5529585 3.2999938 1.2154968 0.68902934 2.0690293 3.3825302 0.7427832 -1.8835102 -0.32176438 -1.2100418 -1.8754331 -2.9000719 0.6565216 -2.270778 0.89528275 -2.554169 -1.8135773 8.747404 1.2142763 0.3600517 -6.1687136 0.38885307 2.8440964 -1.377504 -0.52668315 -3.3728328 1.080925 1.6409023 -1.2744769 0.2631421 -2.127503 3.7509618 -6.3180947 -6.4401035 -2.020945 1.3859332 0.2130941 -0.8788017 1.1883731 1.15093 -0.7717836 1.0530794 2.6037083 1.0067697 -0.44627014 -4.302574 1.4691651 -1.7819947 0.029318448 -0.3294463 3.1444619 -3.9493408 -1.1133335
957 -4.3745027 0.86288214 0.7947492 3.0726464 3.4538517 1.0393376 -2.9238303 3.375751 -1.5470561 0.53869987 -3.4408038 1.7379712 0.91397566 -2.57462 2.5090606 -0.7901747 0.35515916 -2.4814594 -2.803801 0.8813654 -0.74536186 -0.19729851 4.830402 2.541006 -3.4031987 2.1904411 3.843279 -1.3935381 -3.3433025 -1.1999968 -3.140632 3.6385107 2.699685 -1.945293 0.9717465 0.8619208 -2.5926013 2.5787034 3.5166507 1.9700187 1.2336736 1.5604236 -4.2750773 0.42219046 -3.3496246 1.58825 1.320413 -2.2403538 -1.0241103 3.835022 0.2989166 0.8931476 -3.5740018 0.8097606 0.3585446 1.3871888 -2.2628496 1.9966441 4.310721 -0.8707867 -0.4540786 -0.8051956 -0.22737388 1.9876292
1443 1.7665515 1.3823192 3.1033397 -2.7701368 -1.341438 -0.8355711 -4.495931 -3.4917247 0.144589 2.498735 0.9301399 1.1433618 -0.15541337 -0.15593325 -1.0888503 3.4941888 3.5987017 -4.7580953 -2.8134859 -0.17807746 -0.9557095 -0.6033729 -2.7007968 -3.8585572 -1.3460187 1.2201351 -0.80605394 1.5398786 4.249243 1.0847198 2.2189474 -2.784302 -1.2857347 -1.4272531 -2.6856508 1.977959 -2.0794473 -2.738412 2.23922 -0.3508853 2.4204674 -1.7109594 4.0618744 -4.5969644 -2.7444494 -2.1484244 0.36714107 1.0616008 0.2644042 -2.1990716 0.406184 -0.1481897 3.507472 3.2869453 3.6209157 0.48742634 -4.722242 2.7032216 -1.5767969 -0.9746967 1.5544873 2.5997603 -6.0454 -2.5154755
2630 1.0491627 -2.6133676 -3.1282818 -0.6196317 1.0228099 0.68483824 0.31291816 -1.8585246 -3.0858119 -4.9773517 1.4414014 3.2629783 0.644252 2.57185 2.0317094 -0.4833386 1.4923505 -1.6492866 2.955943 -1.1580795 -1.1466534 -2.9924343 0.41904515 -2.8308856 0.88686615 -2.223505 5.7112827 -5.4371963 -0.745618 -1.475576 -3.429806 1.2441272 -0.5696361 3.3244548 1.5183198 2.002381 -0.28811103 -0.6509578 -4.873234 -1.875585 0.6946433 -3.1892807 -4.5575676 7.034911 3.477397 -3.2612758 1.521752 -2.2054594 2.3190598 -1.2530948 -1.3683186 -1.5442708 -2.4086976 -5.7860694 0.5210166 -4.0440106 0.41885018 1.3346574 -1.8632971 -2.8464177 -3.083152 1.7977526 -5.0042896 -2.959147
2725 4.7651625 -4.4047766 -1.405179 0.16358462 0.72415304 -0.6484129 -3.9720628 -0.14914896 -2.403783 -0.22042884 -0.16219623 -5.3509054 2.3660073 -0.41907075 -3.7746217 2.6007166 3.5231855 3.664104 -0.6879822 0.8506813 0.5521969 -2.7468061 2.4978127 0.4951354 5.8632526 -0.5067171 4.454938 -2.0540597 -1.5830827 -0.31760293 1.9798434 0.14383532 -1.7518282 6.779105 1.4670949 0.04570936 -1.5266812 -2.064336 0.68795186 2.145357 2.5973244 -5.577358 -1.211829 0.7540697 3.4292045 2.9172637 -6.701088 1.096637 -2.1000545 1.8546437 0.31922713 8.90657 1.4505248 -1.6145946 -1.251766 -2.8995538 6.503872 -5.2524934 -1.5356041 1.4688846 -1.7467183 -0.42559698 -0.21218033 1.4542758
1968 0.16609815 2.2079647 -5.1097703 -4.0899453 -3.5924492 -2.072236 -0.97087264 4.1613855 7.6542935 -2.4929721 1.6880248 -0.42937067 -1.6580917 -1.6558414 3.9080515 -1.9339912 -5.09215 3.0690782 -3.672433 5.176167 -2.0422845 -1.5646728 0.8095091 -6.1211586 3.0585186 0.083229095 -2.3203676 1.4267256 1.8957976 0.81178117 1.5159693 2.1611137 -3.6805782 -3.0788877 -0.6966154 -0.9652823 1.5346255 -0.6934503 0.75683624 3.5364213 -1.3062413 0.7414374 -1.3071162 -3.0438454 -0.08796916 -2.1102183 6.5152082 1.2345511 -1.0320866 -4.403594 0.16905318 0.3639926 -1.5696518 -1.6693127 -0.2930784 -2.7677693 2.1628084 -0.38239193 4.3048806 -0.5877876 0.20077217 1.0038729 -4.487603 -0.65253705
188 -1.1035877 -1.4886993 -1.2676622 -6.815317 -0.59345347 -1.4045813 4.554382 -2.32952 1.6345974 1.4877267 1.1305023 2.7157493 0.18611105 -0.8194784 -6.0552373 1.9626056 -2.565596 -4.2788258 -2.2390077 4.399807 3.076903 -0.67290777 2.9766076 -0.45233053 0.16084182 -3.2884104 3.4437187 1.3568026 -0.3735643 -1.9064857 0.052841187 -4.6025963 1.7804186 -3.2663176 6.818591 -5.3090796 0.765455 4.2149124 0.6567166 -0.43569288 1.4541779 -0.9647526 1.9113334 -6.2628303 4.988585 -0.6623395 0.19566928 -0.60734385 1.1574714 0.3498476 -1.6416253 -2.0572617 -4.9011006 8.163113 1.1007742 0.3983931 0.78823787 1.2934836 0.7278933 3.1378107 2.394904 1.3944386 -2.2378068 1.4328408
2347 1.6275885 -8.31627 2.6004303 2.3618782 -3.1919675 -0.15563229 -3.0253017 4.657097 0.31356534 -2.6982152 -3.1134162 -3.3971713 0.61628956 0.75088257 0.3706882 -0.23411159 3.3110833 2.5967546 -1.0351225 2.6337411 2.945728 -1.4588077 -0.8433831 1.5815926 5.3906646 0.9145216 1.0430049 2.011374 -1.4472084 -0.6722236 -0.18159524 3.35982 0.39203733 2.6057632 1.9708797 0.5049756 -1.9626117 0.59784776 1.750555 -0.43826368 0.69924605 -2.7622547 -2.4301512 -0.18794455 2.8298159 -2.0359094 -1.3109107 -0.5212443 3.7933397 3.252724 1.1574827 4.781705 1.6061068 1.5439701 -4.2377286 -1.6620001 8.412652 -1.3261937 -4.9589305 1.6855496 -3.383677 2.9658737 3.1703706 -1.1711321
2090 -0.58483875 3.5319242 1.9006349 0.23861985 -0.52913594 3.0082545 2.1554456 -3.0067384 0.66417336 -3.5833602 -1.2413465 -4.5907145 5.031559 -7.5200567 -1.6904896 0.52810496 -2.654146 0.43711993 4.948104 1.5120189 3.158181 2.0403683 1.6907763 1.0704294 0.5377879 -5.1950507 -3.8703613 5.8188934 0.8973029 -3.7104654 -1.9636151 -1.399411 6.3267474 -3.702717 -0.5879426 0.18170041 2.433617 -1.324775 2.5058146 -1.1487783 0.14621387 -5.794523 1.9666933 5.3490405 -0.1527544 1.2309755 -0.16239896 -1.6889297 4.7779903 -2.3880553 5.7808247 -1.5635501 0.7211749 -1.5783987 -5.9126 -2.659394 -1.0059577 0.8958458 2.064522 -2.9915197 0.82787424 -5.122905 2.9301138 0.66833335
3545 -6.33024 -2.4465232 0.018048698 1.7785202 -2.7956834 -3.4128742 2.8561008 1.176918 5.423486 0.20615152 -4.1652174 2.7967577 -0.32291526 -1.9441274 -2.0238194 -6.561621 -4.0378466 5.6679444 -1.4154636 0.75647426 -4.9420133 1.95688 -4.782076 -3.5458546 0.37193975 -3.5495584 -6.568294 2.202317 -1.1111836 -2.361454 -1.0355376 -1.6999078 3.6406572 4.352337 3.9356682 0.33086 -3.6016128 -2.8918142 -3.9668608 2.3970213 0.32946777 -2.2911494 1.5558445 4.8090515 -0.3109909 -0.16152327 -2.5824804 -2.2037485 -2.1371713 -0.61172706 -4.8764863 1.1581192 1.2703671 3.0926301 -3.2702825 2.4008942 -1.650125 -0.456171 -0.73754287 -1.9776982 1.5189273 -2.9241471 0.84729356 -2.0216506
1842 -1.2939103 2.29895 -3.5417364 -6.1199265 -0.530216 -1.4883313 -3.1854146 1.0161743 8.790378 -2.5867097 5.7602863 2.2299068 -1.8644576 -3.2887602 4.9946823 0.60199815 -2.6529553 1.4224389 -1.3744063 5.834533 -3.749099 -3.6054084 -1.126012 -3.4525433 4.032501 -0.59964097 0.4256255 -0.7955029 2.8773913 2.2322135 1.2704887 3.0954852 -1.6617254 -5.168422 -0.36104798 2.8594959 -0.13042392 0.11974163 -6.477979 1.3964677 -1.0228821 0.32364047 -1.246207 -4.3472524 0.63216114 0.43768945 6.1749663 -1.7991774 -0.9866415 -1.3785514 4.123628 1.4571484 1.537997 -3.76137 -0.87830305 -1.9966654 0.7347456 -0.54075813 0.1260054 -3.5859642 -0.14451654 0.13646922 -1.7019279 -0.3333791
432 -4.375794 0.50639695 3.4725022 2.2593653 6.3216763 1.9603758 -1.4005818 2.8871417 0.4741491 -1.2009004 -1.1836685 2.0892575 0.13017556 -4.4540176 1.7100012 -1.1195098 -1.3057964 -2.4859772 -2.881827 -0.90930563 2.1998155 1.2925566 4.2262945 -0.5608409 -2.7836592 0.31032547 0.90069044 -3.7305765 -3.0937898 -0.67795527 1.926809 3.5590012 -2.2081988 -2.9404857 0.5183506 1.027267 -1.7306488 1.4772627 2.0874817 0.433985 0.89623034 1.445054 0.6932618 1.1781771 -4.212906 2.845401 1.4967035 -3.5911384 -1.8334652 0.8334206 0.7732919 2.3342733 -4.1490474 -1.2411685 -0.119076535 -0.24417618 0.06486584 -1.1723235 1.2137686 -1.6961443 -2.5048015 0.90521526 -0.31109253 2.7492726
2841 4.242446 -3.6278737 -1.3595946 2.372052 -1.7846521 1.7784567 -5.770086 -2.1596892 0.119811006 -1.6881415 -3.596483 -5.375841 0.5426641 1.2690053 -4.9346056 1.6980215 1.833685 3.98961 -1.891499 2.582836 -0.17950036 -3.3191068 0.30858028 2.1771233 5.0502863 3.717026 2.6522124 -0.42567492 0.29761383 -3.646346 1.5624259 -0.867907 2.3692343 2.894338 1.0044729 -0.6500316 -0.76962703 -1.8234042 -1.0864135 1.2574388 5.659151 -3.6703987 0.12929992 -3.1627076 1.9575897 0.122652784 -3.505944 1.1957873 1.6451892 3.7735436 0.5307754 8.060484 -1.371825 -1.7949258 -3.5327418 0.1713171 6.8480234 -2.016769 -1.9024657 2.2359009 -0.6568979 0.54146653 -0.19472894 1.9247054
411 -1.8291186 0.80874085 3.3144681 3.2358 4.3299603 2.0376043 -2.0506146 0.7949918 -3.0085208 1.2357248 -1.2133595 1.4814146 -1.8640745 -2.6641815 2.0981188 -2.8499982 -1.8902858 -2.151195 -0.6517002 0.38224703 3.4899788 0.28465185 3.7469153 0.068996966 -1.1114722 -0.7557568 -1.6061774 -2.951668 -4.770831 -2.037548 -0.33102822 2.485112 1.1636525 -2.2880807 -0.09193599 1.6373197 -0.43410507 3.3141236 3.519914 -0.1701572 -0.13755523 2.4764135 -1.2268131 0.03427752 -2.4200516 1.2801112 2.761168 -2.2784154 -0.0556795 3.0195153 1.5064307 0.17938001 -1.5753741 -3.4148643 -1.3845178 3.5028872 -2.7243094 -3.89399 2.5075796 -1.8634791 -1.2428869 -0.6672888 -1.0845256 6.4038944
545 -4.739014 1.2311397 3.5256784 2.952061 4.28248 2.4962914 -0.5985407 3.401725 -2.9965148 1.2214904 -1.9408548 1.7384365 -2.0042393 -2.2083106 1.2398548 -1.1759164 -0.45471117 -1.3641453 -1.9860537 -0.48456442 2.7229168 -0.25517717 2.6535008 1.9066509 -1.8121152 1.0414406 -0.16483745 -4.4106803 -3.0863492 -0.9060546 -0.7005256 0.48202902 1.1191393 -2.6753154 0.95111793 2.8493702 -0.5471064 1.7029629 3.5808 2.3699114 -2.3655407 0.9312794 0.44088548 0.90945435 -2.7655683 2.9301043 1.055447 -1.42076 0.11696156 2.6711996 -0.50416815 -0.36539325 -1.8394727 -1.6309708 -1.3884631 3.7595913 0.29233265 -0.9171431 3.4555094 2.6443138 0.9951068 -1.2788098 -0.33889523 2.3128257
